[[-0.557348,-0.322285,0.616058,0.319073,-0.404365,-0.178818,0.0926304,0.376736,-0.269123,0.204902,0.0152256,-0.625955,-1.03595,-0.159319,0.707224,0.0764255,-0.775155,-0.999294,-0.295049,-0.18808,-0.0667448,0.241653,0.0429924,0.967645,0.603403,0.124597,0.203792,0.126386,-0.741323,-0.159661,-0.283918,-0.39652,-0.182437,0.899215,0.377829,0.382824,0.793679,-0.471078,-0.33896,-0.275565,0.183308,-0.376573,-0.662903,0.13747,0.786828,0.588663,-0.526506,0.0545384,-0.0697139,-0.216305],[0.0146297,-0.335078,-0.376775,0.540657,-0.200952,0.157414,0.0609796,-0.0356159,0.122506,0.191049,-0.165666,-0.0773476,-0.494078,-0.366632,0.12785,-0.0673563,-0.0183773,-0.312659,-0.0759784,0.638794,-0.450802,-0.214929,0.0954361,-0.0337438,0.0113028,-0.168729,-0.446391,0.21395,-0.294668,-0.41816,0.0902963,0.351976,0.150739,0.233117,-0.137616,0.29451,-0.0550386,-0.183483,-0.340076,0.207376,-0.102408,-0.192047,-0.599312,0.413769,-0.353939,0.0259547,0.151896,0.448294,0.129883,0.153913],[-0.719735,-0.282511,-0.987432,-0.444776,-0.445419,-0.495832,-0.376361,-0.541569,-0.764188,-0.377232]]