[[[-0.880551,-0.164373,-1.31507,0.94528,-0.976714,0.232154,-0.362224,-1.14792,0.645253,-0.745842,1.26081,-0.0844142,-1.21802,0.575579,-0.926695,0.969787,0.550615,1.06507,-0.334758,0.793542,-0.111454,-0.712943,0.196387,1.61165,0.0533769,2.00137,1.89731,0.593646,-1.87686,0.662801,0.568346,0.354839,0.496292,-1.0784,1.08087,0.45555,0.391278,-0.876522,-0.124088,1.90167,0.347056,1.80935,1.4651,-1.35609,0.722953,0.215217,-0.0696432,0.0790429,-0.801538,1.77273],[1.42405,0.54857,0.273568,0.608722,1.66842,-1.16071,0.768426,0.0452895,0.456557,1.68398,0.323405,-0.900052,0.151494,-1.74044,-0.100467,-0.0146489,0.186834,-0.310373,0.277779,0.60979,-0.433851,0.542131,0.559648,-0.923612,0.36375,0.330515,-0.333079,0.184118,1.22401,1.01373,0.841609,1.92691,-1.13846,0.496048,0.146031,-0.00607318,0.561449,0.126926,-2.03711,0.269967,-0.320994,0.201025,-1.50456,-0.664998,0.139988,-0.541429,0.266732,-0.0357372,-0.0596637,-0.415052],[0.620502,1.62838,0.64629,0.71099,-0.779473,-0.00689718,-1.10556,-2.08744,-0.448622,-0.580187,-1.10828,1.71136,0.417371,-1.5352,-1.0846,0.573565,2.44349,2.38029,-0.187048,1.41157,0.574725,0.612995,0.502274,1.08252,-0.4232,0.305551,0.471419,-1.11097,-1.46455,-0.20426,0.279,-0.920957,-1.64312,-0.883297,-0.946318,1.34587,0.267434,0.49678,-0.00537126,-0.672109,0.313913,-0.140416,-0.128819,1.10913,1.8634,-0.67571,-1.47688,0.718619,1.10318,-0.294931],[1.36055,0.63097,2.54118,2.01178,0.863674,0.265938,-1.4951,1.9491,1.08325,-0.51146,-0.356853,0.417463,1.14023,0.109378,-0.575579,0.0124821,-0.2743,1.38411,-1.36232,-0.47499,-0.398358,0.51381,-0.108005,-1.55889,0.0997345,-0.855312,-0.882809,-0.55736,0.622242,-0.131352,-0.937071,-0.0939055,-0.858425,0.722587,0.799493,0.40379,-0.299173,-1.31138,-1.78268,0.203131,0.912961,0.194708,-1.47261,-1.23316,-1.53862,1.61357,-1.23933,0.253151,-0.399762,-1.23673],[-0.731254,1.01529,0.653249,0.407788,-1.77682,0.101993,1.51503,0.755669,-0.883877,-0.242622,1.15012,-1.03882,0.260048,1.92074,1.09378,0.623829,1.28758,0.726676,-0.0488907,0.288339,-1.34843,0.00509659,-0.101993,0.944884,1.12561,0.781396,-0.819636,-0.471175,0.30314,0.776116,-0.385662,-1.57906,0.0981475,0.905118,-2.91339,-1.05261,0.244911,0.779534,0.0543229,-0.120548,0.797967,-1.794,1.0444,0.933805,-0.367901,0.686453,1.15439,1.27232,-0.0572832,0.917814],[0.552232,1.00238,-0.254799,-0.70745,-0.0239875,-0.323374,1.37529,0.398572,1.23435,-0.207038,-1.01077,-0.481155,-0.294168,-1.70544,-1.93658,-0.868068,-0.160283,1.07025,-0.10538,-0.588702,0.655293,-0.546434,0.0999481,1.72619,-1.75765,-1.27625,-0.883389,-0.85934,1.26106,0.605426,-0.297464,1.91476,-0.558611,0.768242,0.43556,-0.99704,1.08448,1.32743,-0.786035,-0.444075,-0.439131,-0.656667,0.756554,0.419111,-1.18799,0.321726,-0.897885,-0.36671,-0.150395,-0.286416],[0.109989,-0.0652181,-0.74456,-0.584582,-1.04031,-1.7449,-0.318216,-0.731193,0.651051,1.22114,0.351207,-0.439253,1.50444,-1.34513,0.556444,-1.47652,0.660207,-0.926145,0.160741,-0.165197,0.57918,-0.809046,0.0974761,0.117405,0.542558,1.41417,0.870479,-0.56035,0.151677,0.346751,-0.946043,-1.18485,-1.17173,-0.712516,0.792291,-1.2974,-0.685354,-0.269448,1.30003,-0.493637,-0.827082,0.865139,1.36238,0.075808,0.285958,0.0758995,-1.16541,0.205695,1.35667,0.442763],[0.142369,1.1363,-1.59172,-0.758904,0.781762,-0.947203,0.284616,-1.55861,1.8189,0.586169,-0.85052,-0.790368,-0.609668,-0.687613,-2.01279,-0.593066,1.20325,0.252724,0.102329,-1.91018,2.03467,0.373943,0.61977,0.0101932,0.232093,-0.912015,-0.0154118,1.11521,-0.786584,-0.24778,-2.53774,0.0470901,-1.03311,0.169256,0.638966,1.644,0.550981,-0.913083,1.92053,-0.561419,0.594348,0.698569,0.0332652,1.15967,-0.203894,0.142674,0.524277,0.230628,0.425855,1.00308],[-0.739708,0.270608,2.82308,-0.191015,0.929014,0.593921,0.897824,1.53502,-0.462172,-0.289804,0.630543,-0.899411,-1.08509,-0.175512,0.571947,0.871364,0.208625,-0.663045,1.34294,0.157384,0.387432,0.343242,0.134617,-1.28565,-0.25959,1.13425,-0.791131,0.243538,-0.62331,-0.304025,1.39753,1.89129,0.726005,-0.78985,-0.397351,-0.250954,-0.961913,-0.446364,1.2971,-0.645955,-0.116794,0.798608,0.0232856,0.188543,1.65184,-0.287759,-0.105228,1.18003,1.05475,0.257576],[2.09485,0.201422,-0.376934,1.09262,0.377239,-0.428877,-0.79162,-0.929411,0.566179,0.55269,-0.517716,-1.25947,0.0559099,0.854793,-1.56307,1.84631,0.311289,0.131626,-0.115299,-0.172887,0.36729,1.48283,0.95819,-0.682302,0.329386,-0.0468154,-1.3896,0.648061,-0.126926,0.0326853,1.11487,0.343394,0.744407,-0.843135,-1.43507,0.624409,0.259529,-1.79373,-0.625263,-0.0932951,-1.19474,1.00735,1.77847,-1.69814,1.33845,-1.16895,-0.669424,1.11628,-2.11393,1.89425],[0.406171,-1.64846,0.0460829,-0.141087,-1.29978,-0.794946,-0.513932,0.332255,-2.27165,0.569292,0.444227,1.36695,0.326487,-1.46815,0.22898,0.961028,0.150456,-1.12412,0.719199,-0.442488,0.176946,-0.420118,0.863979,0.545183,0.202612,-0.682546,0.182531,-0.242347,-0.655477,-0.0424207,0.26487,1.97446,0.540147,0.0646382,0.270974,1.41957,-0.953032,-1.60176,-0.569079,1.26325,-0.056856,1.41353,1.54579,-0.879727,2.62709,-0.239448,-0.51381,-0.448592,-0.682821,-0.215064],[-1.3065,0.562151,0.552538,0.0275582,-0.320566,-0.896481,-0.307688,-0.275246,-1.47417,0.572161,1.41621,1.30787,1.38496,-0.690603,-0.776116,0.903897,-1.02072,-0.89758,-1.06421,0.834834,-0.898373,-0.316446,1.19233,-0.881802,-1.88482,0.230232,0.954192,0.966857,1.45344,1.86557,-0.997467,-0.711325,-0.879818,-0.842341,-1.56111,0.187201,-0.810419,0.620167,-1.81497,-0.538804,-0.694174,0.211859,0.483077,0.104526,1.1839,1.83709,-0.604816,-1.19343,0.108646,0.845058],[-0.695791,-1.54793,-0.564562,2.53084,-0.586932,1.62096,0.0900296,-0.365795,0.245216,1.08835,0.0682699,-1.15915,-0.855892,1.32487,-0.0633259,1.28169,-1.22629,0.996551,-0.668447,2.03253,-2.3816,-0.535569,-0.540056,-0.385479,0.482681,0.285226,-0.400952,0.494613,-2.00864,-0.289438,0.596515,0.584796,1.08979,0.187658,-0.630055,-1.25779,0.543352,-0.141026,0.407727,0.269845,0.437788,-0.937651,0.268319,2.4152,-0.320658,-0.169164,1.08032,-1.12842,-1.50551,0.392743],[-0.95703,0.277718,0.929868,-1.32817,0.925687,0.717368,0.35255,-0.212836,0.568163,1.21973,1.95007,-0.447066,-0.619648,-0.740776,0.229957,-0.0209662,0.842769,-0.744224,0.52028,-0.229865,1.00589,0.0744346,0.469344,-0.173345,-0.00918607,0.525559,0.545793,2.74429,-0.511246,-0.135044,-0.461531,0.313669,-0.738609,1.29374,-1.94333,1.02112,-1.35954,1.45808,1.03024,-1.45192,-0.971465,0.949889,1.20866,1.27161,-1.60225,-0.194098,0.662252,0.763695,0.791253,0.0085757],[-1.7185,0.291696,-0.178076,0.985595,1.27738,-1.68142,0.173467,1.10971,1.68087,-1.99762,0.0995209,0.199255,-1.15665,-0.303598,0.924284,-1.98227,-0.0632649,-0.550615,-0.4579,-0.225898,0.453017,0.505417,-1.08231,-0.377575,-0.295419,0.803827,-0.4138,-0.837764,-1.67592,1.47914,0.152898,-0.0616474,0.764641,0.361248,0.793359,-0.0591449,0.799371,0.475692,-0.246406,0.105167,-0.977935,-0.457076,-0.149998,-0.187994,0.346599,-1.52129,0.969176,0.387494,-0.492752,-1.1055],[-1.43226,2.60302,-0.44142,0.596728,1.17331,0.174993,0.3755,0.0870083,-1.11689,0.265816,0.153142,0.0627766,0.865291,-0.0175787,-0.0929899,0.916349,-0.142308,0.877743,-0.027131,-0.76455,-1.3311,-0.550707,0.507035,1.30332,-0.322214,0.640706,-0.0142216,1.59828,3.33351,1.3404,-0.294137,-0.706137,-0.34489,0.882138,0.284433,0.759392,-1.26737,1.54521,0.158818,-0.94113,0.226081,-0.946043,-1.91333,-0.547685,-1.13419,-1.92157,-0.353832,-0.105655,1.95239,0.733573],[0.735435,0.535478,0.856807,-0.920225,-0.926939,-1.77895,-1.47975,0.622852,-0.301767,0.992187,0.95468,-1.18619,-0.530015,2.58501,0.74163,-1.45097,-0.43199,-0.0690939,0.533403,-0.329722,-0.00787378,0.656911,-0.447432,-0.535569,0.0625324,1.58513,0.0921049,0.163793,-1.08042,-2.76727,-0.985046,-0.554003,1.02438,0.313028,1.25477,-1.06613,0.657949,-0.766381,-0.684805,0.695944,1.42161,0.598163,1.77047,-1.25459,-2.26286,-0.294748,-0.235237,0.541459,0.346843,1.04892],[0.513016,-0.512131,-0.187201,1.8186,0.800226,0.434523,2.01791,0.398602,0.481582,-0.823969,-0.335063,-0.130741,0.983001,0.952513,0.777367,-0.494186,-1.19974,-1.05063,2.19892,0.278542,-0.00021363,-0.202551,-0.906705,-1.64632,-0.281991,1.07273,-0.555101,0.592242,0.662069,0.796594,1.55843,0.0507828,0.608875,0.935606,-0.441633,-0.518845,-1.09384,-0.0981475,-0.109775,-0.1695,-1.0282,0.0526444,-0.180517,-1.2588,-0.206122,-0.809381,-0.0681478,0.0512101,0.430921,1.06369],[-1.36656,1.29331,-1.48842,-0.135105,-0.349162,-0.803735,-1.26484,0.733146,0.530747,1.18354,0.370922,-0.748039,0.140172,0.874142,1.75863,-1.04932,0.166478,-0.417615,0.808252,0.803888,-0.382611,-2.18195,1.50029,-0.268838,-0.679128,-1.21393,-0.614795,0.0977813,-1.57472,-1.11328,0.084109,0.214057,0.89935,0.215552,-0.211707,-1.16419,1.03189,1.06336,-0.240791,1.66414,0.932127,1.41649,-1.17109,0.845241,0.029603,0.456313,0.899686,-0.52916,-0.425672,1.05985],[-1.55623,-1.92199,1.1366,-0.700949,0.00436415,-0.850917,-0.89349,-0.0585345,-0.305612,0.611469,0.195318,-1.05002,-0.302622,0.338389,-0.0661336,-1.01755,0.767144,-0.352306,1.17368,-0.107547,-0.272195,0.803278,-1.4135,1.22868,-0.026368,-0.48619,0.164434,-0.265114,-1.03046,0.433546,0.71984,0.850826,0.75042,2.66198,-0.614673,-0.789239,2.42174,0.243873,-0.885952,0.144841,-0.341014,-1.33076,-0.820795,-0.821711,1.20826,1.37376,0.67452,1.53185,1.38594,-1.76214],[0.0138554,-0.378887,2.57836,1.08805,-0.56856,0.557482,-0.257485,-0.804834,-0.518113,1.64748,0.905759,-0.223823,1.54012,-0.107089,0.665548,0.493057,0.301218,1.49083,-0.310251,0.953001,0.280862,1.33369,-0.783532,0.208655,0.314676,-0.490585,0.554155,0.258003,0.0589007,0.80105,-1.41829,0.544176,0.489914,0.186834,0.248207,-0.544145,1.40455,-0.659352,-0.927,-1.17319,-0.0803552,-1.86862,0.645833,-0.563646,-0.0271615,3.12357,0.126652,0.508713,0.821802,1.07657],[-0.254036,1.214,0.54445,-0.554521,-0.6957,-1.83294,0.53914,-1.11945,-0.327219,0.928526,-0.975646,1.72765,-0.707541,1.50389,0.539293,0.527116,-0.3249,0.844447,0.443007,-1.48457,0.902676,-0.653645,0.415082,-0.875759,-0.872799,-0.648488,-0.0444655,0.4803,1.07132,0.646779,0.884457,0.905606,0.527909,0.964354,-0.157689,1.41783,0.860103,-1.51799,-0.209998,0.229469,1.50139,0.322733,1.50865,0.248939,0.455489,1.05454,-1.90051,-0.420667,-1.20353,-1.80895],[0.484603,0.0195929,0.16895,-0.308756,-0.0941496,-0.436506,-0.712638,0.459181,0.425672,-1.09934,0.437056,-0.155614,1.42674,0.915494,-0.0268868,0.141636,-1.88803,1.18806,1.82131,0.0911283,2.00497,-0.506485,0.97763,0.378124,-0.551073,-0.697378,2.00824,-0.866451,0.108127,0.281228,-0.450179,0.433424,1.46678,0.790399,-0.190619,-0.201086,1.32936,-0.6133,-0.936033,0.696921,-0.67925,-0.677908,-0.838771,1.03931,-0.613941,-0.95642,0.0189825,0.68337,-0.709006,0.693747],[-0.874691,-2.0683,0.121281,-0.389782,1.03882,0.0324107,-1.21702,1.82626,0.888272,1.67864,-1.49739,0.570055,-0.127384,-0.491287,0.327006,-0.234626,-0.238563,-2.39317,-1.37703,-0.468734,0.39436,0.00204474,2.57826,0.68215,-0.818537,-0.831202,0.700095,0.227546,0.603076,-0.473098,0.316813,-1.12757,-1.29023,0.941465,-1.92337,1.51717,-0.3773,-0.777093,0.448286,-0.242897,0.033021,-0.372967,-1.77956,1.38343,-1.29768,0.354808,0.00277718,-0.117862,-1.03742,0.0526444],[-0.275582,-0.065157,0.216102,-0.687826,0.135563,-1.08176,-0.564837,1.17054,2.30625,1.40477,-0.33726,0.60979,0.126926,-0.33845,-0.487838,0.05768,-0.191473,-0.848384,-0.333354,-0.112827,-0.617908,0.03296,-0.619953,-0.0835597,1.19929,0.658834,0.976653,0.909024,-0.568438,0.0781579,0.350505,1.07382,-0.428846,-0.465255,-0.533341,-0.435102,-0.0696738,-0.0318918,-1.14008,0.981964,0.141942,-0.487197,-0.864223,-0.130375,-0.341166,-2.00134,1.46995,1.21809,-0.745659,0.451308],[0.108249,-1.03739,-1.47777,-0.409009,-0.13303,-0.515702,-0.623615,1.33378,-0.367321,-0.891232,-0.44908,1.29084,0.862575,-1.39228,-0.899442,-0.731437,0.0835292,-0.302377,-0.0998566,0.769005,0.393231,0.540574,-0.85522,0.489059,0.959624,1.24384,0.850032,-0.178594,-2.47948,1.36,0.351756,1.35371,0.884823,0.386975,0.806024,-0.631062,0.431013,0.268044,0.689352,0.345775,-0.391644,0.891781,0.298349,0.457717,-0.56386,2.592,1.25022,-1.92624,0.00427259,0.647847],[-0.0177313,0.258339,-0.0274667,-0.216193,1.2522,0.271126,-0.928587,2.66991,-0.36198,1.06693,0.601672,1.42088,-0.961943,-0.203833,-1.06601,0.0975066,2.17106,-0.695761,0.00994903,1.2053,-0.924345,-1.36775,-0.159001,-0.804743,0.611347,-1.48369,-0.991028,-0.0360118,-0.0424512,0.887936,0.166295,0.353069,0.114322,0.373974,-0.464705,-0.350566,-0.598285,-0.203497,0.409101,1.08533,-0.0396741,0.673025,-0.349437,-0.66158,1.25098,-0.2837,1.1933,-0.968291,1.55464,1.33454],[0.541063,1.23341,0.472823,-0.869167,1.26798,-2.04303,-0.57268,0.404218,0.518448,1.6614,-0.839808,0.648549,-0.492874,-0.249275,0.233863,0.0530717,-0.980834,-0.925504,0.530992,1.00269,-0.0901517,-0.572405,0.754448,-0.422987,-0.395123,0.0501114,-0.0722373,1.0517,1.60021,1.12723,-1.10562,0.397046,-0.0380261,-0.710013,-1.18165,2.77902,-0.17304,-0.885647,-0.31608,-0.941252,-0.0979034,0.621632,0.795587,0.292978,-0.0356151,-1.22147,-0.721702,0.233375,-1.63845,-0.00305185],[0.577258,-1.17298,1.51152,-1.36567,-1.04218,-0.283456,0.402142,0.493271,1.00607,0.739677,1.0921,0.321574,-1.87222,-0.570696,0.210211,0.312601,-0.950255,-0.485885,-0.544633,-1.39531,-0.681539,-0.582446,0.0972625,0.782128,-0.198798,-1.24122,0.475478,2.37376,2.18525,-0.147832,-1.50008,0.354015,0.478103,-0.792749,1.15119,-1.35716,-0.491958,-0.971007,-0.0202338,1.60549,-0.576617,0.717795,0.606616,0.55208,-0.807581,-1.63097,0.223151,1.23856,1.10462,-0.726249],[1.09088,0.365886,0.268685,0.418134,0.0416578,1.08045,-1.88549,-0.0163579,-2.02222,0.473922,-0.108036,-1.15287,1.37193,-0.916715,0.171178,0.0808435,-0.233375,0.39082,0.34257,-0.548021,0.275216,1.32429,-0.882931,-0.0764183,-1.91879,-0.243599,0.0257881,1.15369,-2.06171,0.00549333,-0.0798364,-2.00461,0.670766,-1.66494,-1.52812,-0.00210578,-0.32728,-0.545885,-0.326853,0.904843,0.40904,-0.983367,-1.66384,-0.844325,-0.0851466,-0.877804,0.593768,-0.614948,-1.70476,-1.1843],[-1.60116,-0.0770857,-0.77379,1.58718,-0.975095,1.29466,-0.546559,-0.128052,-0.434736,-0.279472,-0.706698,0.550818,-0.565887,-0.38335,-0.867644,0.450019,-0.13429,-1.90576,-0.0721497,0.840527,0.414567,1.46011,0.706651,-0.0606135,-0.544673,-1.28471,1.06624,0.408475,0.683548,0.0576146,-0.325326,-0.145087,-1.38545,-0.620713,0.769989,-0.668343,0.0841971,0.768205,0.660781,0.83628,0.748497,0.00729243,-0.77443,0.812164,0.584068,0.0749845,-1.58633,-0.352056,0.387545,-1.35493],[-0.255353,1.17726,-0.723555,0.586582,-0.192126,0.17968,-0.81312,0.463676,-0.23634,0.879146,0.377583,1.03595,-0.158203,-1.55431,-1.07329,-0.240819,-0.155742,-0.505629,-0.767624,-1.71829,0.640504,0.587019,-0.487186,-0.0486321,-0.327373,-0.273335,3.30744,1.30813,-0.548443,-0.133564,0.974692,-0.412642,-1.93927,1.40197,-0.804679,0.222221,0.650919,0.67492,-0.53143,0.33786,-0.0552859,0.472288,1.61431,-1.74234,-0.264736,-0.4735,0.273088,-2.00148,2.38635,1.01532],[-0.592893,-1.22677,-0.66919,-1.93901,-1.20405,1.49046,-0.428282,1.23166,-1.4587,0.252628,-0.816214,0.0431313,0.564606,-0.14158,-1.18692,0.453161,1.11025,1.30166,1.17197,1.36257,-0.762541,0.276142,-0.45296,1.12509,-0.66933,0.659747,0.292184,-0.966034,0.590339,-0.963792,2.33332,0.827885,-0.452965,-0.819463,0.668264,0.196868,-0.46437,-1.43846,-0.138613,0.266805,-0.776172,0.847174,0.550175,0.116269,0.0962147,0.397618,0.939496,-0.735339,0.957226,-0.230461],[1.3105,0.180108,-0.568594,-1.78516,-0.49314,0.77501,0.463504,-0.819958,1.44929,0.904987,0.81914,0.809377,1.62284,-0.125815,0.586189,0.440132,-0.408675,-0.0710707,-0.332451,-0.897589,-1.52269,-1.2326,0.292555,-0.971371,0.483455,-0.980008,1.50546,0.140109,0.37685,-1.22241,0.674515,0.555619,0.00315354,0.065929,-1.01222,0.0926836,0.764252,-0.640407,-1.04834,-0.242107,1.14476,-0.921258,0.896668,0.256253,-0.804714,-0.910269,0.464426,0.489405,0.0357891,-0.798434],[2.13264,-0.949159,1.3589,-0.32926,1.68301,-0.265743,-0.0755733,-1.30379,-0.27001,-0.97559,1.06491,0.927358,-0.801799,1.6026,1.18501,-1.0443,-1.1554,0.843958,-0.746813,-1.18415,0.731458,-0.671657,-1.6844,-0.508541,-1.24586,-0.68942,-0.0163595,0.411883,0.120156,1.26586,0.940445,1.94467,-0.135803,1.34466,-0.558013,-0.0848361,-0.662964,-0.0975277,0.809821,0.0835331,0.708085,-0.0124647,1.94155,0.654802,0.47167,-2.15477,-1.20523,-0.210611,-0.0632454,-0.585961],[-0.0831226,1.0818,-1.25918,0.828408,-1.10176,1.08191,1.33431,-1.08396,-0.0721023,-1.22258,0.488551,1.70671,-0.758046,-0.898369,0.803826,-0.0802354,-0.333869,-0.566116,2.18757,-1.53119,0.0778199,0.11367,-0.624927,0.966465,-1.06044,-1.10995,-1.57662,0.223306,0.775327,-1.49932,0.202543,-1.26985,0.682297,1.09667,-0.0818488,-0.802371,0.836117,0.786147,-0.426926,-0.988914,-0.0333506,-0.877519,-0.490149,-0.247684,-1.11492,-0.394208,-0.117219,0.717397,-1.0345,1.17712],[1.17673,-1.62759,2.6628,-0.274515,-0.329358,-0.0983529,0.998334,-0.42041,0.997571,-0.328969,1.05365,1.02845,-1.41504,0.738798,-0.500307,0.797204,0.201938,0.36367,-0.942167,1.54341,-1.58873,-1.47519,-0.968588,0.384476,-1.87652,0.334042,0.792488,1.39896,0.0522017,-1.33187,1.27527,0.0668925,0.231484,-0.447088,-0.489952,0.858105,1.53466,-1.27054,1.0563,-1.3363,1.13043,-0.874644,-1.42391,1.31527,-1.97685,0.372299,1.2918,1.11729,1.5227,0.290187],[0.508872,0.283884,-0.220078,-1.60437,1.06546,-1.4897,0.257639,-0.602313,0.91321,0.412714,-1.7731,-0.290412,1.54644,0.0533802,0.309369,2.94828,-0.448309,-0.558757,0.899517,-0.616187,0.0512015,1.06679,-0.245003,0.519802,-1.71718,0.291637,0.435632,-1.42716,0.0216035,-0.00388049,-0.180558,-0.115215,-0.885527,-1.03916,-2.37468,-0.435277,-1.9911,-0.569892,-0.143297,0.885967,-1.81852,1.58458,-0.6382,-0.205595,-1.28573,-0.936171,0.315592,-0.512808,1.71778,0.440175],[1.70618,-1.19938,-0.0795407,-0.271076,1.80999,-0.185808,0.101011,-0.0979983,0.779823,0.269106,-0.407113,-0.633852,0.0467275,-1.89044,-2.16147,0.500562,-0.11798,-0.032897,-0.208381,0.0760459,0.85771,0.70942,-1.46559,0.84543,0.39598,-0.153471,0.688343,1.04754,0.231659,0.114267,-0.0487367,-0.246209,0.881153,0.93297,-0.395453,1.59226,2.24345,-1.07108,-0.0286056,-0.907496,-2.01339,0.4001,0.961058,0.181457,0.129567,2.87776,0.574106,-0.163391,1.47738,1.55829],[1.35765,-0.612785,-0.800027,-0.169512,-0.0916993,0.166959,-0.732374,-0.194494,0.439376,-1.07372,-2.04711,0.751213,0.205778,0.348946,1.3927,-0.291246,-1.96098,-0.404893,-0.0155004,-0.207219,-1.16416,-1.24312,0.988587,-1.10375,-1.9355,-0.626855,-0.0169154,1.15186,0.316121,-0.0838999,-0.645957,1.24117,-1.36706,-0.686539,-0.180684,1.17784,-0.753673,0.462464,-2.10228,-0.379557,1.89427,-0.361512,0.431701,1.37177,-0.600039,1.14848,0.13146,1.0494,0.153182,-0.317906],[0.965314,-1.65008,0.625971,-0.119847,-0.259681,-0.263852,0.861115,-0.126808,-0.416771,0.845911,-0.0556184,-0.337339,-0.536335,0.978061,-0.425783,0.798343,-0.34853,-2.3018,-0.51742,0.650313,1.23764,0.191643,0.976225,1.1029,-0.392626,0.899167,-0.537033,1.09715,2.09093,-2.08298,1.88495,-1.23238,1.12596,-1.45769,-1.71387,-0.612611,2.15361,-0.17262,0.248405,-0.38931,-0.149673,-0.102472,0.42492,1.03011,0.733078,0.7067,0.096683,-0.264194,0.632146,-1.686],[-1.45034,0.690054,0.210591,-1.50705,1.66258,-0.645025,-1.54092,1.26002,0.359866,0.129095,0.14894,0.23007,0.197865,-1.19783,1.41026,0.334702,-0.255461,-1.78728,2.18786,-1.9161,-0.812434,1.53419,-0.294216,0.217912,0.679642,0.963429,1.08586,-0.642103,-0.822476,1.11027,-1.30697,-0.0335953,0.389728,0.511041,-1.22313,0.462049,-0.16171,-0.759197,-0.141446,0.368239,0.0139941,-0.8433,0.277708,-0.0665094,-0.00047004,-0.260648,-0.245741,-0.398799,-0.0489746,0.285079],[-0.240887,-0.529935,1.58909,0.578065,1.14139,-1.11269,-1.27624,0.39189,-0.514927,-0.128715,-0.306,-0.166511,1.80467,0.58868,-0.0640598,-1.91368,-0.143263,0.0257062,-0.510357,0.695995,-0.223876,1.20245,0.340484,-0.897276,0.375795,-0.00808805,-0.763363,-0.501291,-0.89393,0.33265,-0.177421,-0.451759,0.831518,-0.0846523,0.433674,0.692253,-0.980017,0.698537,-0.603278,1.20489,-2.14557,-1.84794,0.622013,0.840624,0.867188,-0.851868,-0.852894,-0.705323,-0.603392,-0.892264],[-1.50089,0.674509,-0.890621,-0.305525,-2.647,0.0772552,1.50578,0.310166,0.850715,0.020309,-0.627839,0.442432,-0.662718,-0.0575372,-0.687458,-1.60574,-0.378939,0.810938,-0.648795,-1.39229,-0.326171,0.398699,1.11882,-1.87343,-0.14751,-0.883662,-0.167677,1.55122,1.93124,0.11652,-0.684325,-1.34087,0.84361,-0.878237,-0.13878,-1.22566,-0.121115,-0.177425,-0.528276,0.789872,2.77552,0.215212,-0.492858,2.85264,0.388653,0.4105,-0.81215,-0.219406,0.121754,-0.165314],[-0.999814,1.56098,-0.544889,-0.0847423,0.275292,-0.0812319,0.459562,-0.462,-0.36583,-1.25344,-0.762348,0.460114,-1.41069,-0.371056,-0.541351,-0.994406,-1.08517,-0.622005,1.94986,0.33082,-0.746407,0.43373,-1.05371,-0.982651,-0.585525,0.568201,-1.06529,0.880493,-0.662195,-0.936267,1.84007,-1.26389,-0.0730221,0.52237,0.74892,-1.34017,0.16294,-0.743757,-0.757519,0.0423242,0.215383,-2.34791,-0.00287191,-1.72371,-0.87433,0.937628,-0.704403,0.191451,0.251289,-0.573039],[1.44136,1.53035,0.754998,-0.817927,0.331955,-0.485004,-0.851422,0.447936,-0.0924575,-1.70279,-0.271839,0.126867,-0.260679,1.46577,0.126764,-0.558476,-0.565923,1.57188,-0.192393,1.12612,1.18066,0.60453,0.508632,1.18584,0.135923,1.53234,0.863395,-1.47004,-0.753905,0.680947,-0.230515,-1.12142,-0.710226,-0.610387,-4.01835,-0.0698298,-1.20351,2.47453,0.53565,0.456856,1.25209,-1.41771,0.289597,-2.03027,0.752668,1.93401,0.478103,-0.816907,-0.511764,-1.39216],[0.0933677,0.468466,-1.81255,-0.828137,-1.53545,1.43238,-0.342542,-0.881203,-0.253117,-0.653991,0.279697,-1.65624,-0.580333,0.681154,-0.49003,-1.14405,1.81864,-0.395591,-0.646792,0.857641,-1.4656,1.54342,-1.10939,-0.34403,-0.0305523,1.50606,-1.19522,0.0907586,-2.07337,-0.242008,-0.190931,-0.309279,-3.04309,0.252091,1.24667,0.643024,-2.01153,-0.825961,0.437043,-1.0135,0.71255,0.307177,0.32221,-0.794109,1.1742,-2.24363,-0.0450158,-1.1988,0.237197,-1.78031],[0.898077,0.62953,0.0817322,-0.350856,-2.2218,-0.438678,-2.29807,0.652836,-1.15664,0.866394,-0.586529,-0.942277,0.368644,-0.227282,0.397822,0.412049,-0.740417,-1.05627,1.04104,1.36354,1.42171,0.0764799,-0.307339,-0.652398,-1.66007,-1.85151,0.912482,-0.953104,-1.39331,1.22629,0.13827,0.645086,1.36086,-1.25475,-0.869636,-0.303685,-0.156815,0.131134,1.4198,-0.625193,-1.1978,-1.80498,-0.103399,1.05177,0.119127,0.77488,-0.733609,-0.164194,-0.809926,0.0886364],[0.579288,-2.01548,1.54698,1.3312,2.62774,0.475557,-0.770118,1.108,-0.389306,2.47859,-1.62065,0.0411854,-0.505377,-1.16487,0.735287,1.11801,1.60917,-0.38886,1.00569,1.30352,1.06589,-2.41095,-0.382126,1.00893,1.30065,-0.34307,-0.0734557,-2.34835,-1.42653,0.510787,-0.0500262,0.944574,-0.511353,-0.0369605,0.755797,1.68329,0.466304,0.553802,-0.0530891,-0.947234,-0.808408,0.992926,0.239915,0.195817,0.246458,-0.269946,-0.115466,0.686014,0.463589,0.37258],[1.25503,0.0620783,0.56987,-0.759743,0.221231,0.296293,-0.457921,2.81793,0.795516,0.315342,0.21831,-0.646019,-2.49053,-0.535007,-0.228017,-0.778174,1.98866,1.0756,0.111514,0.516969,0.435363,-2.11526,0.597833,-0.469294,0.0992586,1.6075,-0.721404,0.272344,1.799,1.39231,0.626522,-0.115004,0.471155,1.32657,-0.130552,-0.734706,1.57571,1.94129,-3.42014,0.484482,-0.364406,0.719518,0.158203,0.321404,-0.215322,1.59425,0.29813,-0.282988,0.190199,0.434326],[0.554253,0.338085,-0.370135,-1.43268,-0.245742,1.04507,0.898884,0.236829,0.585283,1.38196,-0.587011,0.175879,-0.968322,-1.91218,-0.361,0.0238996,-0.0887332,-0.384157,-1.41751,-0.116317,-0.647306,-0.426222,0.388963,0.801468,0.318839,-0.678685,-1.29936,0.273471,-0.950003,-1.63073,-0.708847,-2.28789,-0.314373,1.94446,-0.546864,-0.980508,-0.378047,1.4531,0.583663,-1.98325,1.07905,2.01341,-0.359032,-0.0207125,0.62554,-0.0703572,0.648001,0.110349,-0.371737,0.200323],[0.212192,1.08149,-1.20492,0.037248,-1.01431,-0.497574,1.62598,-0.689179,0.220697,1.42151,0.967419,-0.87453,-0.783721,0.837374,0.477779,1.25876,-1.14525,0.196583,-0.884851,-1.30667,1.08735,-1.12698,-2.3025,0.0977301,-0.558426,-1.27968,0.33114,-0.654805,-0.532605,-0.491812,1.96017,-0.0122334,-1.62529,0.466705,-0.166867,-1.20521,-0.61749,-0.243265,0.0352055,1.22838,0.268731,0.995322,-1.03939,0.929844,-1.07977,-0.251556,-1.16785,-0.75767,-0.223606,-0.987769],[-0.811695,0.71247,1.35183,-0.24389,-0.621779,-0.424935,-0.279599,0.355196,0.0998019,-0.736809,1.0396,1.15942,-1.16252,0.896628,1.03868,-2.03769,-0.586343,-2.19217,-0.506304,-0.505769,0.479109,0.00114478,-0.215376,-0.0717482,0.993988,-0.29717,0.330894,-0.61708,0.706966,-1.18336,-2.85027,0.432238,0.764284,0.446832,1.3042,-0.411711,1.07286,2.38478,0.44534,-0.181426,-1.13771,-0.372094,1.28374,1.01431,-1.79664,-1.12837,1.11023,-0.470067,-0.518452,1.9902],[-0.726435,0.662008,0.896845,-0.422831,1.70162,-0.850822,-0.029355,0.396759,-0.607041,-0.322077,1.05106,0.921364,-1.09002,-1.62406,-0.200025,-0.178921,0.891826,1.32443,-0.301382,-0.544383,-0.454546,0.0386485,0.557549,1.38069,0.149684,0.990899,0.995891,-0.155709,0.54221,-0.909931,-0.0374947,0.299097,-0.348375,0.196301,-0.778659,-0.115565,0.966485,1.60507,-0.140593,0.941033,-0.96189,-0.428382,0.781026,-0.499551,0.998721,-0.212379,0.215493,0.788804,-0.95146,-0.11174],[0.205948,-0.266673,0.956225,-0.0370759,0.121933,-0.548775,0.560463,0.0365111,0.149998,-1.24297,1.27221,0.584908,-1.20198,0.66059,-0.42851,2.02763,1.39433,1.86689,-0.491091,-0.769843,0.586254,0.275813,0.205853,-0.997428,-1.15659,-0.51655,1.35334,0.600815,0.95423,0.280336,0.712783,-1.77411,1.52775,0.153109,-0.383584,-0.476072,0.494846,0.782579,1.46633,-0.913163,0.603903,0.545973,-1.76521,-1.04815,-0.0744895,2.01567,1.96533,0.100839,0.350496,0.458558],[1.27046,-0.0383618,0.0895413,-1.66189,-0.166173,0.907102,-0.826289,0.811945,-1.09073,0.755394,-1.04559,0.233528,1.82107,0.270211,0.603473,0.651601,0.463271,-0.339702,1.61296,0.310099,-0.199255,-0.920072,-1.70489,-0.851558,0.368694,-0.871517,0.282846,-1.69872,-0.227729,0.350932,-0.971038,0.598621,-1.81292,-0.262825,-0.693045,0.0656148,-0.140629,1.22282,-1.28971,-0.577258,1.60521,-1.81158,2.15305,0.58623,0.311197,0.960295,0.369335,1.16706,0.434217,-0.690573],[0.413831,1.97171,-0.498367,-2.04724,0.161412,-0.497909,-1.38911,1.05243,0.807184,0.455428,0.930021,0.715354,1.36671,0.223975,-1.80334,-1.50572,-0.824244,-0.604389,1.21995,-0.112674,2.39055,0.253517,0.378246,0.837519,-1.51262,-0.724082,-1.87936,1.23347,0.763268,0.636647,0.466903,0.408918,1.83502,0.704703,-0.493637,-2.35673,1.14002,-0.455702,-0.100803,0.660939,0.436048,0.415204,-0.624226,0.131626,0.301187,1.27232,-1.76327,0.170537,-0.366436,-0.734123],[0.85318,0.838037,-0.84801,0.241585,-0.833922,-1.36015,2.89532,-1.75991,-0.812738,-0.972817,-2.27739,-2.00205,1.49867,1.89628,-1.18629,0.446538,-1.24761,1.08875,0.168539,-0.787601,0.171026,-1.10829,-0.892876,1.11826,-0.952672,1.53736,-1.23008,-0.318937,0.244758,0.70337,0.617907,-1.38621,-0.303637,-1.98759,-2.06799,0.32448,-0.0937557,-0.466691,-0.686039,1.41652,0.448378,1.27918,0.185262,-1.81142,0.467183,-0.291116,2.28804,-0.865132,0.177248,0.226691],[-0.815461,0.440948,-0.632558,-0.317752,-0.242996,-0.497572,-1.11803,-0.131099,1.71051,1.38611,0.154045,0.0289793,0.0585193,0.373318,-0.316871,0.352052,-0.330273,-1.57017,0.535066,0.449361,2.68219,0.746118,-1.15916,0.926447,0.0879063,1.1425,-1.69075,0.786916,0.193302,-0.292694,-0.28395,-2.00678,2.12606,-0.822367,1.41629,-0.026292,0.327479,1.50414,-0.179533,-0.933,-0.93945,-1.6702,0.912325,-0.91084,0.917013,-1.50658,0.760462,0.785099,1.29927,-0.473966],[-0.00950679,0.332986,-0.0537739,0.155522,-0.699772,-0.0911978,-0.634559,-1.19709,0.963895,-0.945687,-1.54071,-0.907783,-0.712261,0.311529,-0.0810299,-0.63494,-0.733931,0.656931,-1.25472,0.0500805,0.792505,-0.924124,-0.243491,-2.55563,-0.546628,-0.19582,-0.893094,-0.08898,-0.148409,-1.7458,-0.253394,-0.49105,1.21814,-0.868228,1.01345,-2.39473,-0.212234,-0.841563,-1.02745,0.110526,1.36826,0.471947,0.0501651,0.256326,0.899421,1.17274,-0.486345,-0.0974734,-1.15755,-0.208675],[-1.03788,-0.902006,-1.2459,0.805332,0.722499,-0.328605,0.693926,0.135798,-0.429749,-0.478787,0.895331,-0.325243,0.941599,0.308721,0.133868,0.788044,-0.141812,0.930947,0.183829,-2.39928,1.81975,1.0145,0.459087,0.961979,0.902861,1.07879,-0.580863,0.477162,-0.143151,-0.240484,2.07776,0.16495,-0.0810413,-0.407455,-1.3878,-0.771045,0.968539,-0.0562409,-0.375615,0.0325596,1.2533,0.329202,0.867471,1.05534,-0.0693899,-0.0232124,-0.331563,0.187247,0.376329,1.29553],[-1.49827,1.18972,0.873912,-0.598067,1.1336,-0.541908,-0.11185,-1.44427,0.797081,-0.899391,-0.150612,-0.172619,-0.129019,0.775921,0.524744,0.47267,-0.651434,0.14955,-0.696161,0.181385,0.122365,1.42997,-0.919303,-1.76847,-0.310711,0.209767,0.504852,-0.659334,-0.167863,-1.69313,-1.46846,1.3809,-1.38807,-0.0931115,0.0328585,-0.751442,-0.52301,0.921328,-1.95715,0.67532,0.99314,0.0896544,0.503751,0.163511,0.392506,-1.32005,-1.32845,-0.374289,-1.19539,-0.162401],[-1.19999,1.33104,-0.826785,0.185287,0.946851,0.161672,-0.783936,0.204787,-2.33311,0.298863,-0.552629,0.0142444,-0.811052,-0.731821,1.47162,0.651838,-0.690308,0.333375,1.21778,0.21919,-0.772574,0.2838,0.897349,-0.665687,0.72933,0.522524,-0.749045,0.687499,-0.514918,1.00177,0.00649015,-0.160917,0.241276,0.412397,-0.342253,-0.696006,-0.015167,0.101902,0.509041,0.0471819,0.368054,0.882068,0.572101,-0.558755,-0.394677,-1.03766,-1.07089,-1.68459,-0.528306,-0.916764],[-1.49948,1.33758,-1.58866,-0.761618,-0.538831,0.740456,0.332496,-1.95242,-0.433884,-0.354205,0.651225,-1.49249,-1.18988,-0.686001,0.730724,-1.69248,0.62916,-1.49174,-2.14716,-1.1351,0.426793,-0.545053,-1.54061,1.01512,0.155091,-0.767719,-0.742806,1.30147,0.241936,-0.162828,1.60143,-1.15468,-0.0192754,1.31168,0.534655,-0.382657,1.78334,2.33072,-0.557726,-0.296993,0.273559,-2.35591,-0.68489,0.245961,-1.46395,1.26226,-1.07213,0.873666,-0.217525,-0.589192],[-0.240946,-0.494951,-0.0878039,0.34885,-0.0493067,1.58411,-3.10276,-0.326649,0.352207,0.0939399,-1.12667,0.159306,0.611332,0.875068,-0.0508865,1.0385,1.62113,0.0227074,1.4973,-1.12234,-1.10595,0.151537,-1.82553,1.52098,0.412273,1.88153,0.458138,0.505684,1.38702,1.08215,0.227009,1.17002,1.26369,1.02178,-0.0263929,-0.15389,0.92456,1.65531,0.0186071,0.620296,-1.20418,-0.561427,1.18205,0.366988,0.770015,0.140802,-0.173598,0.272206,0.285229,1.32662],[-0.143313,-0.568207,-0.372072,-2.63955,0.301669,1.39125,0.652647,-1.24634,-1.03611,0.845539,0.150189,-0.18686,-0.018421,0.0913816,-1.15853,0.395919,-0.422474,1.49983,-0.0107559,-0.126418,0.279093,0.714914,0.412493,1.1304,-1.0461,-1.85516,1.22208,0.507655,-1.47716,-0.919176,0.731296,0.39387,0.396795,1.06574,1.63905,-0.523282,0.823185,-0.862189,0.199126,-0.376163,-0.103198,0.327741,1.90167,0.306118,0.224079,2.14191,-1.40681,0.188801,-1.69984,-0.723492],[-0.569814,0.430566,0.704197,0.0310414,0.193606,-1.49701,1.05728,1.79966,-2.45911,-0.282716,-0.306853,0.240259,-1.01713,-2.29367,-1.34264,0.710651,0.910318,0.03616,-0.766258,-0.6389,0.892985,1.06823,0.102498,-0.116079,0.28531,1.14719,-2.02795,-0.747629,0.836089,-1.3577,-0.555034,0.864311,-0.290261,-1.65724,1.21867,0.639358,-1.6491,2.25127,0.487883,0.187682,-1.49352,-0.204715,-0.862133,2.16607,-0.809844,0.14875,-0.398355,-1.12532,0.040163,0.964115],[1.86718,-0.648755,-0.336776,0.384682,2.67567,-0.229109,0.378283,0.631589,-0.991504,-0.967028,-0.058912,0.443822,-1.07301,-0.131619,1.4947,-0.42831,-1.15811,-1.79892,1.47704,0.936378,-0.803576,-0.428806,-0.111048,-0.253992,-0.356718,-1.65306,2.2949,1.69902,-0.285519,-0.0819945,0.306291,1.96322,-1.79415,1.0369,-1.48664,1.51327,1.53551,1.70642,-0.0584703,-1.45846,-0.962616,1.52271,-0.321698,1.04053,-1.0402,-1.75349,0.741156,0.530228,0.183233,-0.699526],[-0.399869,0.931707,-1.03095,0.61862,-0.889511,0.92025,-0.684853,0.129292,0.212997,-0.0479358,0.203077,0.523042,0.557088,0.611053,0.78585,-0.419042,-0.610453,-2.76495,2.56563,-0.799737,-0.0554458,1.24855,0.764509,-0.247454,0.0107732,0.968839,0.573119,-0.201838,-0.313015,-1.26695,0.423712,-2.01029,-1.51192,-1.96544,-0.036447,0.184501,0.546238,-0.109861,-0.276945,0.926835,0.599897,0.802188,0.930229,-1.12128,0.0688444,-0.930243,0.878064,0.151089,-0.974181,0.73784],[-0.405934,-0.349135,1.17355,-1.5733,-1.16957,-1.57106,-0.919391,-0.419474,-0.471027,0.326673,0.85902,0.787487,0.68139,-2.32841,-2.53569,-1.27537,-0.942491,-0.0301062,0.456274,1.13407,-0.12754,-1.28126,0.0955427,-1.59185,1.71205,0.843177,2.02678,-1.09256,0.29107,0.4384,0.459566,-0.546182,0.527,-0.196192,1.93345,-0.0718841,0.30794,-1.36201,0.300317,0.900774,-1.42733,1.39771,-0.997262,-1.26065,1.79828,-0.318864,0.204467,-1.12447,0.11351,0.10055],[-0.45557,1.16824,-1.508,0.841012,-0.492515,-1.15754,-0.931287,1.67147,0.955255,0.0262123,-0.0542018,-0.886982,-1.00281,0.744386,-0.424073,-0.770238,-1.0926,2.48871,-0.249222,1.0464,-1.27477,-0.478425,-0.72353,-0.593932,1.6444,-0.296375,0.397815,-0.607667,1.88988,1.31226,0.985867,-0.878839,-2.2119,1.54228,0.186134,1.1203,-0.320318,-0.386853,-1.94829,0.122932,-1.33287,-1.10331,1.31443,-1.30447,-0.757861,-0.0927128,0.713019,-1.15141,-0.753653,-1.05065],[0.415511,-0.919271,-1.07258,-0.398473,-0.463498,-0.383853,1.9116,-0.298894,-0.273292,1.78765,-0.860243,-1.26131,-0.959789,0.481837,-0.69626,2.10717,1.22698,0.557525,1.39308,-0.35162,0.878192,1.20558,0.83128,-1.95782,-2.06825,2.06179,-0.0107805,0.18689,-0.424759,-0.637441,-0.47723,0.235933,0.721913,1.2817,-2.1164,-0.284584,2.00835,0.137302,1.35179,-0.384901,-0.362509,0.472218,0.775902,-1.6503,0.895361,1.23356,0.261391,-0.378571,0.137496,0.454968],[-1.30518,-0.751484,0.00115746,1.02958,0.140999,0.57965,-0.903793,-0.435274,0.409924,-0.201356,0.288515,-0.53861,0.0784785,-1.30626,1.68796,-0.265632,-0.464055,-0.0684485,-0.309468,1.17826,-0.528179,0.43888,-1.01613,-1.30222,-1.23297,0.406194,-0.69198,-0.256011,-0.0225197,1.78994,0.292149,1.32492,0.98775,-0.808124,0.478684,-0.124755,0.394731,0.758371,1.26228,0.620328,0.366821,-1.66388,-0.578107,0.507554,-0.15233,0.138392,-0.640548,-0.0682885,0.600344,0.762857],[0.652119,0.790289,0.55036,0.357598,0.0757907,-1.298,1.07908,-0.929553,-0.454353,0.346965,0.899312,2.10186,-0.0787088,-0.78024,-0.242727,0.283272,-0.696,0.723285,-0.430288,-0.314008,0.0232042,1.90484,0.78349,1.68734,1.08987,-0.478308,0.23639,1.22774,2.21975,0.703838,2.25402,-0.357817,0.0498663,-0.844614,0.652062,1.51849,-0.848304,-0.149567,0.544676,0.0826044,-0.606503,-1.45459,-1.62139,-0.444251,0.340057,0.948205,0.262958,-0.88655,0.0620926,-0.108731],[-1.15119,-1.49376,-0.374298,-0.366703,-0.291764,-2.5074,1.93719,-0.181799,0.7438,0.119061,-0.495338,-0.649194,-0.1265,0.49867,-1.2367,-0.395245,1.83604,0.717355,0.815842,0.955182,0.44283,-1.39321,1.7901,0.326147,-1.00419,0.490195,-1.45361,-0.683313,-0.289859,-1.41073,-1.06676,-0.951244,-0.737398,0.521965,-0.0885241,0.0385004,0.835297,-0.0618164,-1.82102,0.385564,2.04608,-0.50808,0.788434,-0.589096,0.910067,0.19579,0.367321,-1.04927,-0.330185,-1.00394],[0.620954,-0.477044,-0.58898,-1.93687,0.635031,-0.1579,-0.571275,-1.53258,-0.717119,1.27944,-1.2103,-0.0402068,0.493626,-0.662946,-0.313428,0.654144,1.20286,1.7898,0.160359,-2.26945,-0.139321,0.886542,-1.86016,0.248649,-1.19404,1.59102,0.0559984,-0.363019,-0.199351,1.09093,0.332822,-0.589306,-0.677968,-0.186056,-0.278014,-0.199172,1.04478,-1.20077,-0.369476,-0.265687,0.126122,-0.24501,-0.21963,0.858946,0.082593,-0.493521,0.502441,-1.95816,-1.07736,-2.7201],[0.0368405,-0.214475,0.921152,0.852859,-0.196745,-0.628502,-1.45054,1.73137,0.235603,-1.37438,1.42897,-0.614916,0.506927,2.00286,0.871013,0.225141,-0.834649,-0.495816,0.489436,-0.207545,-0.432698,-0.395709,0.114065,0.465105,-0.415442,0.740241,1.21023,0.679995,3.04196,0.434838,2.44809,-0.737379,0.657791,-0.0293404,1.15721,0.864284,0.401872,1.70446,0.51452,0.144465,-1.03047,0.208761,0.725127,1.32775,-0.812635,1.92932,0.635881,-0.337458,0.868007,0.294773],[1.69569,-2.20511,0.145083,-0.404214,-0.0443066,-0.666098,0.772615,-1.26187,1.07106,-0.52663,-1.31122,-0.608463,-1.62725,0.553748,0.970751,0.645754,0.716735,-0.287093,-0.859603,1.04002,0.579343,0.094873,3.32552,0.138662,1.00823,-0.690842,0.286878,-0.9082,-0.106447,0.317625,-0.368131,0.208596,-0.103443,0.468363,1.04169,-1.55697,-0.834279,1.31401,-0.411224,0.849264,0.049221,-0.928105,-0.425785,1.24168,-0.772602,0.815421,1.58553,0.121238,-0.347514,0.871828],[-0.105815,-0.966621,-3.30476,-1.9062,-0.971014,-1.05876,-0.413185,0.631024,2.74992,-0.876412,0.316045,-0.96255,-0.549355,0.910414,1.6346,0.22695,-1.45628,0.0674729,-1.07585,0.451964,-2.07455,1.80504,0.220218,0.266678,-0.858954,0.39756,0.793379,-0.377595,-0.453755,0.211037,-1.18182,0.0105182,-1.17152,0.514317,0.445802,-1.25069,1.47955,0.0546417,-0.690711,-0.757293,1.09696,-0.722607,0.519903,2.03155,-1.78836,0.149851,0.97085,1.56845,0.582928,0.539564],[-0.164299,0.912894,0.775549,0.771233,0.394986,-0.788006,0.579519,0.137728,1.35506,0.736906,0.688968,0.882231,-1.09337,-0.368286,-0.511839,-0.265581,2.10992,-0.792572,0.105705,0.364159,0.077657,0.769089,0.315188,-0.625785,-0.383693,-0.261168,-0.252007,-1.59348,0.550102,-1.85304,2.00682,-0.137566,-0.699636,-0.195592,-0.180333,-0.662863,-1.11732,1.75909,-0.0100612,-1.49134,0.686177,1.36349,0.442916,0.398142,0.171171,1.45361,-0.86517,1.46051,-1.34582,-0.700516],[1.13053,1.06363,-0.0377559,-0.508438,1.30287,0.362756,1.09328,0.438179,-0.811643,0.585757,0.443179,0.952569,-0.360281,-0.459936,0.89518,0.396135,0.216542,1.82903,1.10449,1.67818,1.1692,-1.04894,-1.26451,1.39834,1.23187,-0.826563,-0.71959,-0.149247,0.0879032,-1.79618,-1.08317,0.118971,0.343527,1.13561,0.712703,-0.984025,-0.712918,-0.74352,1.50037,-0.903897,0.377631,-0.267689,1.04327,-0.766064,-0.361023,-1.90491,-0.089066,0.368004,-0.0843676,-0.0749951],[-0.674142,1.14602,0.143131,-2.09052,-0.570506,-1.35507,1.33613,-1.53079,1.38413,-1.09028,0.539186,-0.0162286,-0.24043,0.364139,1.9936,-0.93273,0.376438,0.570391,-1.26529,1.87062,-0.451371,-1.68705,2.25417,0.84032,-0.311718,0.464783,1.7532,-0.997758,0.533762,0.282054,-2.20528,-1.2556,0.392448,0.035339,1.74811,1.03446,0.820271,-0.795969,0.308853,-1.86989,-1.67976,-0.433178,-0.0224521,-1.16087,0.265066,1.17991,0.661532,-0.72065,-1.09493,-0.074411],[0.916902,0.257379,0.16389,0.37083,-0.2264,0.734621,-0.0403512,-2.17411,0.021717,1.387,-0.178163,-0.853194,-0.223344,0.0805883,-0.661213,0.113096,-0.0258528,1.38281,-0.33322,-0.0495064,0.87781,1.05141,-1.95843,-0.174284,1.56041,-2.45699,1.26236,0.354051,0.417174,0.507633,-1.80226,-1.90202,0.671383,1.29249,-1.70738,1.06027,-0.133099,0.430273,0.0551878,0.195815,-1.64666,-1.83442,-0.431459,0.898852,-0.185131,0.929935,-0.0127287,-0.489748,-0.248018,0.844024],[0.0302133,0.818873,0.982696,0.236641,0.492141,0.555956,0.149083,0.121342,-1.26417,-0.100711,-0.788598,0.711936,0.195135,-0.0281075,-0.0489212,-1.08362,-0.126682,-2.65822,1.46934,0.83816,-0.155309,-1.47725,-0.312174,0.275887,-1.24628,0.473708,-0.151189,0.223731,0.315134,0.0985748,1.01468,0.3708,-0.186102,-1.25312,-0.43202,0.602039,-1.3947,0.713706,1.71175,0.497116,-1.38496,-2.26121,-0.0306711,-0.168584,-0.160741,0.507767,0.684408,2.07566,-0.15598,2.15146],[-0.479141,1.89547,-0.734001,-0.254463,-1.03708,1.65221,0.312174,0.811792,-0.18479,-2.09778,0.25959,-0.183264,0.702658,1.89776,-0.0439772,1.67232,-0.429731,-1.91452,-0.680929,-1.76424,1.18378,-0.391705,0.837153,-0.1901,0.628712,-1.19648,0.0685141,-0.357524,-2.18867,0.704642,0.141942,0.426862,0.958342,-0.46028,-1.74331,-1.19855,0.116184,0.232612,0.182226,0.850307,1.65194,-0.0976287,-0.242042,1.6024,-0.246925,0.363292,1.39427,-1.46773,0.927305,0.625019],[1.57128,1.05966,-0.497329,-0.608183,0.339672,0.0500981,0.127057,0.56573,-2.17976,-0.686616,0.269574,1.74183,-1.29582,2.10573,0.719065,-0.291198,0.754724,-1.37175,0.0847767,1.95478,1.30145,-0.47291,1.29638,0.161361,-0.252411,0.392761,-2.89679,0.705039,-0.934158,0.264412,0.576097,0.157614,-0.701299,-0.876745,0.605538,0.787172,1.05994,-0.603219,-0.597646,1.05555,-1.96777,-0.541459,-0.00372055,0.122362,1.46986,0.12569,-0.259387,-0.660406,-1.30328,-0.837281],[-1.19267,-0.252402,-0.381974,0.774886,-1.31858,-1.38286,0.165498,1.1189,0.691181,-0.145948,-2.09852,1.80645,0.425911,0.609206,-1.56854,2.37944,-0.56517,-1.29331,-1.07011,1.77809,-0.607622,-0.772344,0.640865,0.0108071,-0.0721443,-0.22147,0.374991,1.43372,-1.0392,-0.62724,0.00765846,0.333175,-0.784574,0.578296,0.0402921,1.54843,0.765863,0.206123,-2.0442,-1.26799,0.454357,1.76802,-1.15205,1.09498,0.504997,-0.0454214,1.91206,-0.273138,-0.0851914,0.162258],[0.898111,0.13255,0.0701811,-0.031893,-0.447785,0.920009,-1.00338,0.653738,-0.642924,0.917907,1.296,-0.308326,0.577732,0.0133689,1.23895,0.389219,0.542054,-0.338196,-0.566347,1.84048,0.0497149,1.23368,1.32523,1.35195,-2.13378,-0.948885,-0.344337,-0.862586,-2.27245,2.13845,0.953257,-1.03369,0.905595,-0.543123,0.268749,-0.705057,-2.14889,-0.891098,0.165941,-0.289911,0.359443,-0.408387,1.72768,1.37601,-0.421556,-1.60703,-1.22135,0.0382103,0.00861675,-0.62966],[-2.28632,-0.524565,-0.580791,1.36173,0.165459,-0.423487,0.811667,0.640051,-0.156265,-0.0641767,0.675195,-1.57542,0.45811,-0.972861,-0.135569,0.640741,0.0525673,2.86115,0.205896,-1.52911,-0.623426,2.9968,-0.706965,-0.664527,0.224919,0.17042,-0.334445,0.228394,2.00869,0.531358,1.39556,0.205951,1.46065,1.15223,0.893582,-1.7275,-2.75519,0.365133,-1.26768,-1.15848,1.03617,-0.500597,-1.13136,-1.17448,1.71789,-0.266728,-0.407177,1.58888,0.208081,0.252147],[-0.115623,-2.03178,-1.47834,1.04875,0.00556405,0.131342,0.536779,-2.83526,-0.113372,0.249748,1.44141,1.59952,0.463587,1.19156,0.652537,-1.32321,-0.401274,-2.57707,-1.0268,-0.427952,-0.441802,0.734801,0.0843455,-0.316577,-0.766696,0.903888,1.19496,1.62197,-0.50291,0.242843,-0.224305,0.62801,-1.50748,-0.260643,0.511662,1.17487,0.911171,0.910408,0.843124,-0.549813,2.2285,-1.31659,0.390615,0.696479,-1.053,-0.127182,-0.0730291,1.05516,1.13651,-1.16545],[-1.14859,0.163633,-0.920634,-0.37534,1.83364,-0.585496,-0.584205,0.926418,0.0405261,-0.615378,0.816283,-0.667333,0.465948,1.25593,-0.796449,-1.50103,2.52556,-1.26141,0.16178,-1.57854,-1.00417,-0.162866,-2.55148,0.515734,0.830002,0.12663,0.724795,0.623501,-0.915651,3.07449,0.701918,0.214719,1.18579,0.400252,-1.65556,-0.959572,-0.0751257,-0.296538,-1.26662,-1.00709,0.247815,-0.686293,0.0629158,1.46604,1.22364,-1.32372,-0.606754,0.24904,-0.0821764,-0.873595],[1.59278,0.800198,-0.211862,-0.390165,-1.50955,-0.621865,0.119418,-0.564111,0.281255,-1.00284,-1.11088,-1.37966,2.11242,-0.946678,0.515247,0.972296,-0.464942,0.1912,-0.863773,-0.855329,-1.04287,0.651406,-1.54084,-0.513008,-0.823488,-1.30556,-1.49638,0.167256,-0.575195,-0.215418,0.0863389,-0.420965,0.0968134,0.204168,0.328559,-0.486323,1.03658,-0.409129,-1.16133,0.493295,-1.42089,-0.530777,0.317435,0.181791,-0.81411,-0.170501,-0.220032,-1.39864,0.801606,0.853461],[-1.34415,1.0695,-1.08161,-1.71081,-1.21124,0.462459,-1.59159,-0.131836,1.11606,-0.775433,0.307107,0.0511975,-0.969948,-0.185962,0.602969,-0.516503,-1.13288,0.615801,-1.30629,-0.53114,0.674971,0.88935,-0.902631,0.0170076,0.819086,0.836193,0.197818,1.83306,-0.852042,-0.581027,0.703929,-2.11809,-0.952505,-0.516439,0.76119,1.79018,2.82805,0.659855,0.425441,-0.349241,-0.0731298,-1.6342,-0.231734,0.40097,0.215713,1.20521,2.66409,-0.998194,0.249792,-1.01598],[1.74969,-0.437964,-1.50302,2.0311,-0.778475,0.509989,0.180517,-0.360917,2.20471,-0.499111,-0.530341,-0.748536,-0.619379,-0.929579,-0.406501,0.492738,-1.34764,0.208571,-1.80326,1.1496,1.89775,0.51513,-0.622028,0.543961,0.519135,0.0386947,-0.0511388,0.149892,0.0643355,0.182029,-2.70854,1.02312,0.840164,-0.202623,-0.629589,-0.0965319,-1.71704,0.122363,0.615308,0.902976,0.996504,-0.64496,1.30172,-0.570058,0.0192557,1.7212,-1.52426,0.0188846,0.523839,0.431152],[0.0595482,-0.347848,0.720103,-0.747184,1.07525,-0.938339,-0.894212,-0.980363,-0.537819,1.01705,-1.10994,0.785719,1.0865,-0.0437103,1.24175,0.262831,0.397519,0.502874,0.148964,-0.198624,1.06407,2.20497,-0.00836669,-0.518708,-0.830153,-0.800437,0.0253062,1.41233,0.708679,-1.14438,0.142197,-2.10026,0.336742,-0.835912,1.93117,-1.42529,0.954372,0.598842,0.160568,-0.348774,1.48113,-0.761683,-1.04411,-1.82767,-0.200845,-1.30045,1.03411,-0.0570056,0.861014,-0.548496],[-0.281232,0.319611,-0.732924,0.68959,0.0112138,-0.793728,-1.27353,-0.383096,-1.35188,-1.48672,-0.5979,-0.292198,-0.551305,0.0513286,0.087667,2.47871,-0.433215,0.609909,-0.642534,-0.881068,0.8371,1.14537,0.375859,1.14036,-0.627956,0.526868,-1.10781,2.02791,-0.0681562,0.596868,0.150326,2.4805,-0.0152634,-1.13608,0.386505,0.647517,1.61599,1.07892,-0.6145,-0.213991,-0.354042,-0.963358,0.0987943,-0.289219,-0.0799888,-0.277947,0.643301,1.04722,1.06132,-2.39275],[-0.272754,1.45071,0.804891,1.27166,2.19254,-0.0326783,0.0850146,0.210069,0.513458,-0.470803,-0.120172,-0.057277,0.346511,0.985129,0.173429,-1.0722,0.167603,-0.495227,-0.533872,0.00377349,1.32715,-1.89472,1.33301,-1.11282,-1.63691,-0.571099,-0.121607,-0.459835,0.94986,1.32612,0.539395,-1.24657,0.109252,-0.0988524,-0.599779,-0.0239989,0.259145,0.219459,0.761795,0.423879,1.51901,-2.52495,-0.383071,0.931922,1.87059,-0.0138289,-1.2035,-1.56598,0.576322,1.01542],[-0.292134,-0.124935,-0.861984,1.48479,-0.105055,0.19793,-1.17274,0.945074,0.436208,0.325023,1.19322,1.03409,-0.323938,0.139644,0.966214,-1.07752,-0.00115009,-0.13098,-0.819672,0.690103,0.568161,-0.348161,0.170484,-0.491494,-2.13466,0.581224,-1.70643,1.83692,-0.0297268,0.508059,-0.697263,-0.14293,0.468915,-2.08497,0.581099,-2.28993,-0.483573,0.222828,-0.770485,0.0372608,-0.533608,-1.07663,0.11886,0.0541444,2.01676,0.164053,0.147389,0.395328,0.135476,2.25836],[0.0262646,-0.501994,-0.0990756,0.263859,-0.37387,-1.15025,-0.205549,2.43273,-0.571147,-0.659369,0.866519,-0.0851233,-0.739884,0.922706,-0.574727,0.968433,-0.473226,0.432942,0.781892,2.85044,-0.262821,1.21039,-1.72495,-1.62319,-1.56257,-0.289357,-0.0583472,-1.13923,1.98229,-2.42772,-0.866477,-1.73712,0.373716,1.46687,-0.0434135,0.0619919,-0.893068,-0.809857,1.55403,-0.667462,1.24016,-0.453167,-1.50359,-0.678103,-1.2266,1.77697,0.415587,1.37143,-0.156164,-2.2725],[0.520069,-0.758965,0.502325,-0.75068,-0.193748,-0.0853766,0.145164,0.178673,0.802026,2.01676,-0.774235,-0.965521,0.812951,-0.18202,-0.439641,-0.787617,0.265404,-0.92775,0.221642,0.686812,2.66125,-0.794505,-1.8243,-2.64483,-1.28549,-0.501749,-0.719376,2.16463,0.725266,-0.310834,1.82508,0.0599037,-0.71292,0.0209388,0.17311,0.895961,1.38433,0.97954,1.68077,0.449823,0.647113,0.0537421,2.17394,-1.55082,-0.263503,0.0405781,0.44348,-0.783466,0.769838,-1.55751],[0.818631,-0.563501,-2.02215,-0.230342,-0.311514,-1.21558,-1.06427,3.03934,-0.707459,1.14243,-0.207055,-0.428919,-1.04755,0.309489,0.15622,-0.78571,-0.938884,0.356507,-0.0933793,-1.11826,0.989394,0.558329,0.0789532,-0.952359,-2.39308,-0.40492,1.02595,-0.0225149,-0.41773,-1.55827,-0.184084,-0.275069,-1.60311,0.194095,1.17421,-0.534034,-0.347673,-0.26866,-0.664072,-0.240653,0.704544,0.230691,-1.77263,-2.54901,-0.741196,1.26918,1.6187,2.01306,0.10446,0.455353],[-0.77883,-1.23968,-0.347512,1.12295,0.209585,-0.948188,-0.684419,2.12079,-0.365311,-0.222249,-0.178679,-1.46772,0.687041,-0.810222,-0.937854,0.628565,-0.131839,-0.707188,-0.17419,0.156669,0.787687,-1.12668,1.19892,0.00788963,-0.119306,0.0128579,-0.636424,1.24395,1.28711,1.32081,-0.449951,0.389713,0.0520411,0.534261,1.21445,-1.40954,-0.719957,0.326788,-0.18332,0.378234,1.13421,0.959929,0.499405,-1.0303,-1.19054,1.65293,-0.877357,-0.493611,-2.23709,-0.177104],[0.0179938,-1.56443,0.0926737,0.468898,0.801564,-0.0966892,0.0596281,-1.58205,0.733656,2.46985,0.778549,-2.17123,-1.27295,0.788479,0.70525,1.16089,-1.38926,-1.50785,-0.298959,0.914834,0.720055,0.52676,1.38746,-3.00061,-0.705614,-0.667722,-0.598426,-0.336731,-0.614487,0.295475,-0.999628,0.843028,-0.149579,0.792783,1.36554,0.843088,-0.0917478,2.04161,0.814171,-1.15255,-0.383047,0.480706,-0.0275238,-0.63913,0.438032,0.66707,0.173469,-1.97141,-0.615268,0.770325],[0.638556,-0.699309,-0.839917,1.19399,0.199692,0.97762,-1.29632,-0.384427,-0.798239,0.299316,1.29222,0.588461,0.153883,0.014873,2.0078,0.374281,-0.181104,1.17829,0.550482,0.616055,-0.496037,-1.03353,-1.95727,-1.45727,0.0164294,0.110988,0.363884,0.748027,0.0655637,-1.52625,0.682672,1.95455,-1.4793,-0.961453,-0.266507,0.788268,-0.743292,-0.53328,0.670059,0.591661,1.29282,0.270682,0.502376,-0.167143,0.0166867,-2.06677,-0.380453,0.70476,-0.901625,0.59301],[-0.479803,-1.98527,2.61156,-1.22597,-0.325247,-1.29928,0.106662,-1.11389,-0.472387,-0.0386458,-0.0590681,-0.951446,-0.57495,-2.93333,-0.716664,-1.66925,-0.957601,-1.64906,-0.801207,1.59789,0.240266,-0.517102,-0.215752,0.507695,-0.116621,0.55509,0.190919,0.936682,-0.0216596,0.606091,-0.631765,0.553167,-0.212905,-0.192052,1.07888,-0.285875,-0.700864,0.628633,0.819097,-0.870466,1.90909,1.13077,-0.544595,0.344341,-0.399649,0.557982,-0.480766,-2.57006,0.575869,-1.93702],[0.317572,0.846683,0.164038,0.0758901,-0.710586,1.19888,-1.36011,-0.0461643,-0.365371,-1.29024,0.204894,-0.525019,0.527409,0.849452,0.346383,-1.12328,-0.0181305,0.0634328,0.4584,-0.371787,-0.24391,-1.27687,0.616365,-0.056143,0.686755,0.666384,1.67618,-0.921674,-0.15575,-1.99305,-0.103706,-1.54658,0.510478,0.397051,1.97325,0.214516,0.700096,0.00598657,-0.184679,1.10588,-0.636216,-0.813618,-0.00317495,0.980881,-0.219599,1.02629,0.0423899,0.214013,1.69729,1.24427],[-1.26085,-0.946113,0.193777,1.33944,-0.583228,-0.374896,-1.28172,0.41217,1.0146,-0.0721534,-1.03586,1.43388,-0.74866,0.820936,-0.810431,-0.746364,0.0519442,0.258485,-0.376748,-2.32331,0.0572776,-0.556015,-0.492413,0.988691,1.61949,-1.83262,-1.1077,-0.12978,-1.05648,0.852997,-1.99146,0.461328,-2.39718,-0.0692263,0.327291,-1.23158,1.00509,0.0701181,1.11801,1.43671,-0.0510288,0.424226,1.17509,-0.321949,1.14655,1.49419,-0.0746565,-0.0207464,-1.4075,-0.0215006],[0.199023,-1.1472,-0.0764954,-0.610723,-0.0871095,0.996627,0.966657,-0.472926,0.343012,-0.0897937,-1.54473,0.307992,-0.52118,0.724343,-1.39536,0.146191,-0.451011,-1.1334,1.2117,-0.0856803,0.669717,-0.677202,-1.47144,-0.728692,1.36841,0.258456,0.472152,-0.411349,0.0805873,-0.045007,-1.58006,0.142308,-1.74092,-0.122106,-0.436457,0.38995,0.211889,-1.43063,0.117817,0.0771611,-1.17608,-0.49432,0.0283321,-1.2217,-1.45808,-0.294315,-0.314171,0.990901,-1.98583,-0.354797],[0.734774,-0.143376,0.905756,1.57108,-1.43207,0.586221,-1.15089,-1.99289,-0.415783,0.0999285,0.594023,-1.01497,0.0239655,0.869765,-0.731055,-2.18535,0.175844,-0.0971535,0.096466,2.27005,-2.23162,-1.05179,1.30462,1.57676,0.521033,-0.4179,0.331842,-0.0067151,-2.2334,0.195642,-0.423061,-0.709098,-2.00017,0.962994,0.126538,1.48253,-0.339362,1.38011,0.8073,-1.24564,0.200579,1.09577,1.69553,1.97892,0.00273987,-0.655492,-0.471022,-1.33549,0.961442,-0.56107],[-0.611152,-0.24674,0.0919966,0.131724,-0.381253,0.753625,-1.23805,0.562693,-0.415075,1.01311,0.697224,0.950977,0.876218,0.255556,-0.176533,0.89186,-1.58933,0.569998,0.585156,0.33149,0.676317,-0.114419,0.262423,-1.38423,-0.756755,-0.363677,-1.42075,0.462059,0.620729,-0.657599,0.75126,0.322288,-0.270485,0.731783,-0.257925,-2.12544,1.04005,0.353024,0.793013,-0.6205,0.939823,-1.36981,0.126168,-0.594558,0.166293,-0.0850072,0.207411,0.927329,-1.05373,1.38132],[0.19039,3.64479,0.394015,2.03977,-0.278554,-1.62755,-1.49365,-1.49062,1.20701,0.645479,-0.0779325,-0.983188,0.365844,3.18064,-0.655112,-1.29792,-0.258581,0.416915,0.0322349,0.14775,-0.786622,-1.04098,0.336743,-0.114373,0.462367,-0.865832,0.158382,-0.121324,0.483046,1.44525,0.482946,0.0626053,0.126328,0.103649,-0.138443,-0.20959,-0.465075,0.490941,1.91037,0.37958,0.663006,0.721729,-2.17419,-0.413006,-0.18803,1.08379,-2.13169,1.10515,-0.9121,1.55586],[-0.131748,1.08728,-0.0813013,0.327403,-0.271706,-0.37672,0.557482,1.271,1.92117,0.250282,0.573016,0.459639,-0.0102542,0.450392,-0.644276,0.660939,0.0471816,1.15143,-1.3835,-1.16233,-0.722983,0.226081,-0.113346,-0.352245,1.43303,0.992767,0.0172735,-1.05533,-1.66094,-0.285012,-0.319681,0.277169,-0.610034,0.101505,-0.132084,0.389203,-0.949919,-1.1934,2.39241,0.720176,0.354656,-0.0701621,0.386273,-1.0954,1.40904,1.51598,1.80276,-0.7275,-0.111301,2.05496],[-1.08502,0.349223,0.539811,-0.0177618,-1.18329,-0.644765,1.67864,0.17907,-0.0780969,0.706565,-0.308473,-1.52968,-0.535367,-0.485906,0.535783,-0.871431,0.999933,1.08496,1.23826,0.369684,-0.0979339,0.420362,0.396741,0.856655,-1.13346,1.71779,1.67904,0.195777,0.408748,-0.13043,0.322876,-0.560072,1.36489,-2.03658,1.63775,-1.41292,0.390652,-0.217322,1.50147,2.08072,1.46251,0.305485,-1.13622,-0.691031,0.377301,3.20566,0.243202,1.10608,-0.747948,0.352092],[0.230541,1.25065,1.02501,-0.691421,-1.01541,-0.0318852,-0.0483675,0.836748,-0.262796,1.42739,0.111822,0.390373,-0.713131,0.243408,-0.0963744,-0.381619,0.508167,-0.0219945,0.545565,-0.133397,0.839242,-1.36317,-0.423794,1.67848,1.79221,0.168131,-0.644673,0.289037,-0.550103,-0.0285342,-1.43944,-0.871671,-0.0368816,0.387688,-0.303539,-0.675394,0.0566,0.201783,-0.421174,0.198221,1.52118,0.148655,-0.150162,0.769994,-1.27897,0.404769,0.467894,-0.749934,0.0890495,0.0932287],[-0.776788,-1.46755,-0.357907,0.777888,1.18564,-0.23522,-0.58548,0.976589,-0.663975,1.69175,1.08859,-1.34894,-0.171343,2.32094,-0.632394,-0.264119,-0.130457,1.36326,-0.466283,0.486763,-0.308331,0.783488,-0.036895,1.27761,-0.448526,-0.0578604,-2.43906,1.8884,1.01749,-0.19257,0.289478,0.861197,0.342264,-1.2297,-0.18319,-0.532249,-0.712952,0.499962,0.66315,0.69199,2.26002,-0.626039,0.105579,0.111814,1.12324,-1.04228,-0.649377,-0.810691,-0.563158,1.48522],[0.407764,0.736025,0.253626,1.4027,-1.04269,-0.193064,1.16281,-0.157295,-0.260044,0.510268,0.416577,-0.876641,0.0231512,0.0606913,-1.14063,-0.525245,2.3628,-0.578707,-1.31776,0.774735,-0.469217,0.402826,0.0384027,0.217927,0.447837,0.237002,0.221939,0.00875953,1.05416,-1.25711,-1.68168,-0.54368,-0.465291,-1.9823,0.10157,0.154799,0.668583,-0.37908,0.604508,-0.522755,0.215932,0.346053,1.71492,0.390315,-0.471446,0.157024,-0.450174,-0.43491,-0.947495,0.157919],[-0.439487,2.57481,-2.14317,0.572698,-0.464336,1.27568,-1.0181,1.04599,0.126986,-0.97905,-0.958602,1.09682,-0.509858,0.0443172,0.926193,0.100155,-0.667722,-0.483105,0.575499,-0.428421,0.980942,1.99681,-0.1501,-0.696858,-0.198999,1.21018,-0.729232,0.745127,-0.0486544,-0.969386,-1.01131,-1.05209,0.550823,1.94654,1.5839,-1.36586,0.149101,0.389953,-0.301331,-0.474654,0.828415,-0.660644,-0.367562,0.706352,0.212719,-0.895864,0.192764,1.06819,-0.406463,1.49462],[0.27289,0.734514,0.823073,1.43844,-1.55543,-0.657039,0.458791,-0.162317,-0.546264,-0.693671,0.136853,0.444007,-1.04773,0.683689,0.837155,1.6423,1.88744,-0.166401,-0.0251586,1.36341,0.799469,-0.134968,0.0999098,1.93195,-1.43665,-1.128,-2.20992,-0.140266,0.269873,-1.26405,0.131266,0.865621,-0.00880253,0.16758,2.43966,-1.34735,0.791114,1.36569,-0.181315,0.306436,-0.938813,0.327453,-0.288967,-1.36589,0.514184,-0.429174,-1.23045,0.805725,0.159844,-0.48974],[-0.996412,-1.64627,0.544553,-0.279098,0.721181,-2.47483,-1.44911,-0.86768,0.551028,-0.338266,-1.27876,0.671766,-0.403836,-1.24559,0.168803,-0.379729,0.924694,-1.25543,1.4142,0.0702971,1.02025,0.52673,-0.261637,-2.04538,0.419736,-0.560887,0.576651,1.50194,-1.2429,0.113807,1.81404,0.166943,-0.995101,-0.542001,-0.503273,0.348968,0.789909,-0.799989,-1.05196,0.506358,1.48924,0.265141,-0.450854,-0.0244994,0.782216,0.357484,-1.13455,1.08991,2.41016,0.299488],[0.773392,-0.21521,0.352261,1.11759,1.47613,0.504224,0.697982,-0.214752,-0.261152,-0.348445,0.780615,-0.684274,-1.35744,-0.907843,-0.0494276,-0.551896,1.67654,-1.17278,0.448769,-0.544699,1.65688,-0.453156,0.0947945,0.812321,-1.67179,0.170126,1.29517,-0.449507,2.10491,-0.611867,-0.521761,0.463888,0.270719,1.44072,-1.64824,0.615486,0.135597,0.488258,0.223725,1.40863,1.94083,-0.938962,0.514608,1.26065,1.1211,0.148437,-0.680304,0.931692,0.164206,-0.280961],[0.323935,-0.120952,0.196798,-0.851862,-0.233833,0.549274,-0.489012,-0.569064,-1.07329,0.356662,-1.94394,0.472812,-0.826733,-0.182686,0.219451,0.0661022,-1.98488,0.0583745,-1.87524,0.0425439,0.747715,-0.0594187,0.50049,-1.22905,-0.307083,-0.284815,-0.899759,1.52135,-0.0835529,1.16532,-2.49075,-0.921516,0.846586,1.173,0.0162474,-0.129123,0.687778,0.116119,1.74688,1.16414,0.545101,-2.08495,-0.899072,0.575653,0.528517,0.877247,-1.15206,0.808824,-1.48651,0.89223],[0.627171,-0.991115,-1.10728,-1.48053,-1.62331,-0.612511,-0.214002,0.810644,-1.76227,1.22622,0.946647,-0.752739,-1.05278,-0.401824,1.25381,1.62824,-0.100583,-1.34401,-1.1032,0.38303,-1.08915,1.20117,-0.60794,-0.770008,0.477593,-1.011,0.652894,2.08845,0.107139,-0.653512,0.23557,1.14316,-0.364081,0.969082,1.00078,-1.52879,-1.16275,0.166466,0.631084,0.816611,-0.531486,1.20364,0.338691,-2.32044,0.240476,-0.415224,-1.10039,1.03422,-1.56145,-1.00219],[0.183396,0.274833,-0.501778,-0.990296,-0.214542,-0.508439,-2.8373,0.698449,-1.88248,1.56688,-1.00597,-0.222961,0.566917,-0.0475373,1.07241,-0.890804,-1.31587,-1.33967,-0.384375,-1.08178,1.36144,2.44126,-0.00128222,-2.20249,0.659883,0.352652,0.816506,-0.422127,-0.760316,1.37654,-0.258635,0.824707,0.775098,-0.22032,-0.135159,1.42558,2.46588,1.2108,-1.47798,1.00371,-2.09833,-0.134653,0.431423,0.171652,0.1691,-0.221162,-0.477778,0.663657,-1.01757,-0.398295],[0.449152,-1.41173,0.510798,-0.179614,-0.826676,1.93981,0.21899,0.256135,1.92067,0.105383,-0.803747,-0.390054,1.17427,-1.44855,1.47384,0.931805,-0.434747,-0.523012,0.504121,-0.766476,-2.20488,-0.596073,-2.73791,-1.31881,-0.220068,0.87107,1.69025,-0.280579,1.53145,0.088449,-0.347992,0.423899,-1.95782,-0.446622,0.492081,0.0572654,0.853436,1.20501,1.73957,0.242945,0.725338,-0.110384,0.90947,-1.23589,-0.493715,0.289704,-1.79018,-2.2925,-0.187476,0.638897],[-1.251,-1.24242,-0.429834,0.374573,0.330683,-2.21208,0.0707852,-0.04891,0.0532299,-1.40235,-1.35345,0.490492,-0.688502,0.217459,-0.0598715,0.990993,0.513649,-0.400921,-0.186909,-0.743287,2.35448,1.32717,0.496649,-1.5762,-0.996994,-0.500824,-1.68254,0.380133,0.655011,-0.700698,0.0945362,2.22193,-0.822464,0.0963931,-1.48185,-0.183208,-2.49606,-0.172032,-1.04945,-0.610512,-0.375395,0.248294,0.747219,-0.897803,-0.501042,1.63489,-0.356449,-0.895425,-0.750184,0.658475],[0.0670283,0.56054,-0.370166,-1.33148,-0.792033,-0.98846,-0.461097,0.496297,-1.39248,1.55445,0.462201,-1.10831,0.594522,-1.15568,-0.674602,0.655855,0.429332,-0.741283,0.761177,-0.615021,-0.780908,0.356921,-0.249716,-1.01889,-0.622834,0.635461,-0.208684,1.59427,0.997679,0.246489,0.032937,-0.196926,-0.370204,1.18912,-1.52408,-0.673173,-0.479478,0.384644,-0.776796,0.536232,-1.33721,-0.344266,-1.23122,-0.701898,-1.80536,-0.159723,-0.77925,3.16672,-1.04122,-2.22122],[0.404033,-2.00905,-0.603373,0.212396,0.845792,-1.2264,-0.307133,1.29063,-0.628633,0.760039,0.472058,1.49261,-0.252052,0.268316,0.0437575,1.40237,-0.424177,1.69718,-1.82619,-0.654816,0.705679,0.522451,1.01828,-2.25301,-2.20141,0.948161,0.779185,0.731347,0.0476292,0.363551,1.01189,-0.960933,1.16494,-0.400463,-1.43921,-0.574812,1.36848,0.270563,-0.43986,1.18696,-0.590726,-0.644767,-1.93552,1.43812,0.756939,-0.146975,-0.835951,0.294829,-0.916292,-0.0669792],[1.33058,-0.914026,0.372327,-0.572023,2.40218,0.312527,-1.05817,-0.312135,-0.486814,1.11622,-0.509959,0.994109,-0.338734,-0.466515,-0.329855,-0.117387,-2.65059,-1.40179,1.75995,0.552044,0.814627,0.113528,0.637952,-2.1853,-0.675973,-0.140832,-1.36862,-0.237548,-0.18514,-1.12442,-0.20097,1.64477,-0.340837,-1.15874,0.639703,0.678475,-0.686823,-0.283192,1.10547,0.106058,-0.425176,-0.542206,1.4878,0.172439,0.985529,0.403786,-0.19042,-0.601542,1.87795,0.75806],[1.08569,-1.47125,0.789409,-0.625032,0.266406,-1.66607,-0.294429,1.38927,0.672921,0.735271,-0.45176,-0.238339,-0.996656,1.49286,-0.592142,-0.824916,-0.079347,0.148856,1.5486,-0.0760307,0.426792,1.89448,0.617339,-1.4775,-0.7436,0.948389,-0.956165,-0.710178,0.285235,1.32842,-2.1068,1.80739,-0.898057,1.5985,-0.180778,-0.916049,1.27928,0.0221102,-0.0511202,0.551436,0.992722,-1.73523,1.08567,0.516163,0.20468,0.360344,1.15593,-0.317977,-0.353066,0.953595],[1.6311,-1.79715,0.239687,0.171376,1.03082,-3.18589,-1.43093,-0.499303,-1.4622,2.17159,1.36765,-0.335306,0.768678,0.67472,-0.307703,0.161462,0.521332,0.0479896,1.43402,-1.49557,2.04768,0.28218,0.0889095,-1.06365,-0.215822,-0.598481,-1.78488,-1.13841,0.666971,0.328274,-0.0230412,0.286337,-0.559524,-0.263932,2.60416,1.23277,-0.588258,0.368062,-0.284977,-0.290401,1.30779,-0.789914,2.27201,-0.824652,-1.01498,0.555607,-0.954797,-0.884792,-1.57461,1.35456],[0.0950315,0.628878,0.563729,-0.150814,-1.13657,-1.61098,-0.27672,0.0782616,-0.958921,0.546646,1.09516,-0.571845,-0.0900155,0.196475,0.749264,0.662196,-0.576052,0.64079,-1.12096,-0.855483,-0.281564,0.49145,-1.03879,-1.68185,-0.813846,-0.194724,0.320968,0.900724,-1.80089,0.102235,-2.58021,-0.427119,-1.14076,0.480814,-0.62906,1.56235,1.30369,0.510956,-0.396285,-0.761448,0.266835,2.10417,-1.75134,-0.392981,0.446667,1.14849,-1.66818,0.235064,0.202904,-2.0092],[-0.456992,0.920763,2.16479,-1.27981,0.434965,-0.837394,1.21964,-0.00198301,-0.106974,-0.533275,-1.01132,2.45842,-0.506564,-0.350901,-0.48667,0.580858,-0.527792,0.799157,-0.147883,-2.25697,-0.29351,-0.0144297,0.680895,0.556331,-0.849464,0.912282,-0.259523,0.667925,0.905584,-0.959705,-1.27076,0.304599,-0.819903,-0.849965,-0.264833,0.648252,1.56578,-0.422055,-0.320615,0.505482,1.11154,-1.04662,0.248651,-0.90154,-0.207776,1.50187,0.574055,1.45313,0.454101,0.00546794],[0.352379,0.15195,-0.672894,0.240618,-0.889929,2.10734,-2.47222,-1.72632,-1.26827,-0.630884,1.20037,1.28166,1.23345,0.0142842,-0.0216482,0.562525,0.540371,-0.636263,1.01319,-1.07031,0.475515,-0.655191,-1.12324,-1.84083,0.36963,-2.10171,0.687829,0.302851,0.218829,-0.815748,-0.995741,-0.709003,-0.953137,-0.254234,-1.0148,0.819171,-0.682739,0.176886,-0.158126,1.08704,-0.261938,0.190352,1.53954,1.94345,1.46195,-0.478365,-1.28252,1.11302,-0.726986,0.105103],[2.43662,0.0979985,2.23337,-0.620078,1.99455,1.96524,-2.33443,-0.265519,-1.30418,1.3271,0.0852908,-0.63167,-1.26423,0.0444435,-0.120212,0.688801,-0.0081614,-1.16402,0.110206,0.0155938,-1.51051,-0.655092,-2.25828,-0.543709,0.263132,1.94528,-0.811646,0.431906,0.622535,1.13847,2.63143,0.387563,-0.767187,0.908534,-0.945823,-0.375666,1.36125,0.419586,-0.772324,1.00804,1.30376,-0.224151,0.294528,0.616139,1.51471,-1.42347,-0.231825,1.64654,-0.0141218,-1.57044],[0.315797,0.588321,0.864291,1.49018,0.739935,-0.386285,-0.247201,-0.660323,1.56105,-0.421945,-1.59493,-1.30205,-0.964332,0.0948069,-0.774408,-1.36317,-0.387843,0.221701,0.671233,-0.342834,0.41426,0.658204,1.53104,1.78643,0.878281,-2.68235,-0.333594,-1.36025,-0.776878,0.464462,0.925491,-0.704163,-1.15621,2.38175,1.47635,-2.32597,2.36826,1.33395,-0.997277,2.06304,-0.656624,-0.404231,0.638288,1.43742,0.613902,-0.25447,-1.52202,1.46378,-1.75607,-0.142876],[-0.456968,0.520301,1.09936,-2.41904,-1.67119,1.8167,0.250923,-1.36099,-0.650335,0.251841,0.225045,-0.749507,0.572841,1.09635,-1.16663,2.63486,0.203003,-0.5251,-0.694077,-0.114253,-1.42412,0.253842,1.52119,0.68506,-0.529686,0.530897,-0.825661,-1.87543,0.904144,1.55076,0.149315,-0.416415,0.068146,0.419931,-0.611819,0.151726,1.49377,-1.46229,-0.623127,0.567944,1.35569,0.110121,-0.923446,0.141142,-0.0170326,-0.227865,0.330467,0.389586,-1.57526,0.84095],[0.262005,0.159608,0.154079,1.21802,-1.12492,-1.34647,0.488138,-0.291864,1.42408,-0.329365,-0.581133,0.554548,-1.34808,0.33958,1.32708,-0.23342,-0.793338,1.77406,0.164751,-0.698891,-0.148297,0.220094,1.62354,-0.314259,1.55781,-0.365411,1.107,1.60167,0.322011,0.881936,-0.879468,-0.81127,-1.49439,0.292337,-0.0190605,0.748327,0.248423,-1.33995,-0.736238,-0.170197,-0.0300037,-0.033561,-0.312481,-0.157428,1.26618,-0.588591,0.728583,0.435618,0.173905,1.80059],[0.697935,-1.03844,0.708964,-1.04669,-0.0779076,-2.63434,0.668491,-0.220155,0.102872,1.3398,-0.617516,-2.5487,-0.175849,-1.11208,1.53775,1.28566,-1.06208,1.54075,0.951376,-0.731303,0.39982,-0.540989,0.712837,1.48247,0.553442,-1.35402,0.0612573,0.557949,1.21563,-0.175851,-0.186561,-1.24397,-0.61093,0.220853,-0.344949,0.619582,-0.245622,-2.55809,0.177231,0.25936,-0.492866,-1.41858,0.550539,0.246423,-0.260084,2.27239,-0.374838,0.219552,1.67218,0.984392],[-0.765431,-0.168341,0.569583,0.127334,1.6107,0.740641,0.560629,0.677946,-1.21539,1.34267,0.372238,0.228037,1.0813,1.21453,1.82704,-0.741887,-0.351109,0.65648,-0.721085,1.73074,0.987474,-0.873131,0.196956,0.515581,-0.6243,-1.17803,0.590738,0.95978,-0.574633,0.0950872,0.55177,0.33918,1.59503,1.02535,-0.252768,1.3703,-0.360093,-0.160157,-0.108739,0.731413,1.11164,-0.473093,1.30266,0.545686,-0.0669737,0.228561,-2.65463,0.853864,0.814507,-0.218297],[0.957549,-0.825953,-0.210761,0.236305,-0.847407,1.95401,-0.27195,0.324107,0.512803,1.09061,-0.194494,0.977752,0.69042,0.425672,2.02164,0.823908,-1.09214,-1.7539,0.696493,-1.31544,0.458022,0.784417,-1.02942,-0.922514,-0.795892,0.717856,0.30491,-0.284707,0.0796533,-0.330271,-2.01968,0.00613422,-0.411664,-0.291879,0.59859,-1.44688,0.3043,-1.15357,-1.4189,0.655416,1.3719,-0.456221,0.670278,0.806726,1.00589,1.20423,1.42827,-0.803583,-1.00876,-1.32286],[-1.26228,1.20917,0.183447,-0.2425,-0.698202,-0.0751061,1.00812,0.687419,2.14386,0.619007,-2.0391,-0.353771,2.10642,2.2606,0.10886,-1.72952,-0.643862,-0.980408,0.587878,0.132158,-0.125156,-1.24677,0.105048,1.2599,-0.0323191,-0.480559,-0.562365,-1.38663,0.759053,1.07009,-0.0692094,0.605455,-1.30407,-1.64807,-0.990384,-0.40492,1.0429,-0.992279,-1.34558,-0.615844,-0.615866,-0.124673,-1.07016,-2.27879,0.127905,0.487686,-0.543352,2.79907,-0.000274823,0.573199],[-0.0586802,-0.244319,-2.45295,1.55544,0.649626,-0.823839,0.635501,2.05831,1.92339,0.588113,0.953656,0.382267,-0.331578,0.965561,1.50925,0.0512134,-1.12631,0.233617,1.12842,1.25922,0.0824194,-1.24526,-0.0365659,-0.580083,-0.0833168,-0.166623,-1.0202,-0.377558,-2.43092,0.231407,-0.538861,-0.849116,-0.699808,-1.35148,-0.464758,0.000865947,-1.05512,1.22951,1.60996,0.344713,-0.599675,1.06909,0.952745,-0.929514,0.144249,0.703563,-0.887838,1.24259,0.713816,0.613247],[-0.489802,0.616628,0.237302,0.72406,-0.193993,-1.80345,-0.136054,0.915856,-0.402517,1.58039,-0.618456,1.48292,0.656702,-0.358155,0.602587,0.763423,-0.201089,-0.0389844,0.890935,0.336651,0.844071,-0.581742,-0.203161,0.960429,-0.325307,0.0642161,0.287444,1.80653,-2.51385,-2.11619,-0.561801,-2.33541,1.08115,-0.952106,-0.958087,-0.73643,-3.0876,1.13121,1.69401,0.908258,0.92833,-1.67499,-0.130624,-0.445838,-1.34265,1.13147,-0.290875,0.0119153,1.19179,-0.432415],[1.56399,1.44786,-0.729125,-0.040863,0.0268416,-0.706799,0.0668859,-0.698086,-0.967725,-0.0154097,0.442102,-0.235831,1.00509,0.085803,-0.15674,-0.553658,1.49587,1.98646,0.0337374,0.0928073,-0.53688,-0.979143,-0.132162,-1.19995,-2.10262,0.280791,0.192996,-1.36666,-0.0999712,-0.596232,-1.32403,0.523142,0.656469,-0.418575,-1.23308,0.186415,1.22702,0.915357,0.0317314,0.809461,0.350473,1.38237,-0.805981,-0.830831,-0.432116,-0.438123,-0.581278,0.790346,-0.708024,-0.316785],[1.50445,-0.836973,-0.152983,2.4211,-0.719166,1.96561,-0.621473,-1.26111,0.31178,-1.60316,0.563757,-0.510331,1.31549,-1.4662,-0.637714,0.511864,0.423335,0.475445,0.86337,0.667133,-1.1998,-0.176812,0.0753123,2.09341,0.302475,-0.413287,-0.400332,1.62595,0.706228,-0.934015,-0.371872,1.38338,-1.29774,0.273584,-0.0214126,-0.221247,1.61933,1.71292,1.25844,-0.0938942,0.0145472,0.0193611,-1.74854,1.01318,-1.85963,-0.34247,0.06314,-0.598558,1.84681,1.01938],[-0.367773,-1.27795,0.625729,-1.95337,2.01589,-0.241012,-0.209458,0.378019,-0.642947,0.333474,-1.58585,2.59641,-0.598742,0.959637,1.1328,0.232835,-3.03348,-0.675233,-2.10395,0.809507,-0.0278579,0.0110731,0.0233185,-0.387126,0.29651,0.0114755,-1.39472,1.11049,0.0711035,1.06441,-0.673748,0.473885,1.50208,-0.982915,1.13711,0.609485,-0.00311018,1.45164,0.725411,0.58104,-1.15641,-0.323318,0.456622,-0.305897,0.794427,0.813312,0.757333,0.158911,-0.836329,0.352372],[0.148688,0.564919,0.376139,0.383784,1.28159,0.61002,-1.28117,-1.84085,-0.972466,-0.315186,-1.38687,0.859117,0.575316,0.951139,-0.509418,0.331064,-0.790424,-0.159852,-0.402674,1.84276,0.388107,-0.109489,-0.373229,-0.22096,0.0273836,-0.142141,0.100853,0.800951,1.45951,0.781054,-0.990885,-0.503078,0.0569442,0.824348,-1.54864,0.653491,1.4313,0.227088,-2.12666,-0.548377,0.422856,-1.1635,0.921144,-0.812961,1.03099,0.516048,-0.0866941,0.624211,1.1598,-0.420382],[0.932821,0.378136,-0.194627,-0.881117,1.05829,-0.296946,0.127908,-1.00742,0.74112,0.695007,0.804993,-0.0420064,-0.687299,-1.08572,-0.95937,0.408374,0.689076,-1.69467,-1.60344,-0.067249,0.58711,-0.839972,-1.78112,-0.527187,-0.973832,1.46234,-0.0840772,-1.66795,-0.752709,-0.181894,-1.61439,-0.121014,2.84255,-0.330952,-0.0932989,-0.179008,-0.0682086,-0.871739,-0.733113,0.910193,-0.312963,0.0186852,0.703594,-0.812197,-0.740051,1.20211,-0.922794,1.09891,-0.0104359,-0.552214],[1.6676,-0.55748,-1.64957,0.760619,0.311389,-1.10001,0.223239,-2.37753,-0.44762,1.08922,1.52223,0.0704445,-1.00626,1.72396,1.65838,-0.0889483,0.822303,0.298637,0.120001,0.131658,-1.88242,1.01795,-0.761627,-0.394972,1.55864,-0.320366,-0.5836,0.996429,-0.283157,0.0841953,-2.81825,0.662275,-1.11679,1.15376,1.95768,-0.517788,0.394644,0.569374,-0.366689,0.257398,-1.07011,0.173485,-0.884027,-0.0726602,0.834381,1.61027,-0.440462,1.49445,0.134366,-0.986358],[1.35815,-0.376474,0.408022,0.122612,-1.21185,-1.46365,-1.53136,-0.105378,-0.198945,1.12627,-1.02865,-1.42226,0.706469,-0.870545,-0.24766,-0.645758,0.134388,1.35351,1.21165,0.532835,-1.86658,1.08008,1.33585,0.621298,-1.54762,-0.467245,-0.450761,-0.757762,0.529625,0.714924,-0.876206,0.149021,-0.966556,0.223389,-1.39923,-0.0257244,0.305421,1.28854,-0.183733,-1.22894,1.51336,-0.495107,0.0111013,-1.42935,1.15375,-0.344732,-1.19514,-1.47356,-0.910112,-2.57324],[0.664672,0.605543,-1.45618,2.06535,-0.836062,0.749591,0.212474,-1.07338,0.222467,-0.194086,-0.664106,0.0971418,-0.353915,0.495669,-0.873808,-0.811781,0.501412,-1.28623,-0.226628,2.0582,0.566948,-2.37505,-0.0666817,-1.52838,1.10273,-0.285141,1.52266,2.24605,0.419394,-1.29872,-1.135,-0.404259,-0.642878,-0.909103,0.983071,0.484274,1.71778,0.525269,-0.934771,1.01237,0.958053,-1.31607,0.566949,-0.854195,0.577387,0.785066,-2.22402,0.679023,0.457307,-0.640113],[-1.10981,-1.09015,-1.15484,0.99242,1.04412,-0.656825,0.800696,0.234826,-1.49852,-1.26548,-1.50572,0.54407,-0.815933,1.38952,0.780466,-1.34834,-0.390461,-1.26695,2.30404,1.15345,-0.111756,-0.47026,2.20866,0.3349,0.824445,-0.158841,-1.1693,1.85377,-0.295611,1.41378,-0.56553,1.14945,2.69292,-1.83836,-0.301011,-0.376453,1.02608,-0.020197,-0.412523,-1.69513,0.477844,-0.521566,-0.127382,-0.280599,0.881331,-0.177794,0.0463453,-0.475884,0.449047,-1.17944],[0.348445,-0.988832,-0.261992,-0.47799,-0.419759,0.198027,0.217526,0.558523,0.449335,0.593225,-1.37697,0.309332,0.311416,-0.218923,-0.807742,1.17842,-1.81949,-0.800595,-0.655184,0.536286,0.971951,1.35569,-0.16464,-0.128329,-0.260225,0.187926,-1.02885,-0.270098,-0.038676,1.1054,-0.308684,-1.83991,-0.795447,-0.928657,-1.01097,0.997503,0.938206,-0.950291,-1.19043,1.74231,0.0695866,-0.0779976,0.808488,-0.514028,-1.22009,0.34057,-0.371074,-2.34827,0.984869,-0.419051],[1.4376,0.40505,0.0306184,-2.02225,0.00723247,0.170655,-1.81173,0.0179995,-0.370843,-0.961035,-1.10973,1.29551,-0.707806,-1.33462,2.48359,-0.356716,0.572912,1.46579,0.176208,0.31364,-0.164342,-0.259933,-0.779329,-0.709962,0.862937,-0.337235,-0.40837,-0.956122,0.516755,-0.292485,0.0319529,-1.68162,0.435753,0.57596,-0.771341,-1.42115,0.121117,2.05693,-0.314703,0.707834,0.315882,-0.39693,-1.60402,1.09657,1.86453,-0.510951,1.00053,1.07531,0.503048,1.02573],[-0.366456,0.997847,0.197002,1.28776,-0.171804,-1.62095,-1.29826,-0.503139,0.378623,0.873313,1.21258,-1.00371,0.582983,2.23039,0.261312,-1.90962,-0.294667,-1.57474,-0.0645504,1.19774,-0.455177,-0.0567105,-2.1383,-2.76947,-1.61336,-2.47825,-0.0741547,1.20099,0.891655,1.32322,-1.16386,0.921053,-1.62533,0.321146,-0.392539,0.476011,0.436873,0.470099,1.31664,-0.721922,0.338377,-2.16721,-0.399581,0.175851,0.854737,0.40073,-0.295114,0.950757,1.9391,-0.645882],[-0.222469,-2.23256,-0.314302,2.28198,-0.482944,-0.924492,2.23418,1.98418,1.43774,1.06938,0.505236,-1.27726,-1.2288,-1.38017,0.145487,1.22814,1.11035,-0.284079,-0.144848,-2.54909,0.113814,0.780475,-1.44762,-1.75717,-1.32238,1.72579,0.999034,-0.587101,1.34671,-0.0267001,-1.41316,0.997801,0.0331714,0.636751,0.832413,0.694262,0.640936,0.392329,0.807649,-0.450033,0.482167,-0.226752,0.889219,-0.843938,0.247978,-0.930066,0.142673,-0.0693383,-0.58345,-0.412436],[-0.676535,1.206,-0.469607,0.515681,0.804781,-0.0152803,-0.687444,0.0143221,0.0866295,0.893666,0.109485,-1.52118,0.303945,0.841364,-0.246074,0.211862,0.882445,-0.976121,0.380152,-0.123597,0.615738,0.750929,-0.0707925,-0.311388,-0.263042,0.728277,-0.756905,-0.405218,0.380489,-1.02335,-0.368056,-0.968811,0.0595408,-0.0857914,0.936875,2.84327,-0.910072,-0.949599,-1.80621,1.49078,-0.794137,-0.00315507,0.375231,-1.20284,-0.569827,0.659945,-0.432096,1.19556,-1.91576,-1.1403],[0.776201,-1.78202,0.422301,-0.318615,-0.996519,0.238427,0.662879,1.25224,-1.26026,1.19963,-0.939868,0.954507,1.09334,0.744912,0.014232,0.969378,-0.757662,0.628979,-1.16154,-0.296723,0.640328,-2.07633,1.8488,-0.454656,1.80262,-0.699868,-0.396329,1.67671,1.65455,0.773434,0.744027,-0.794397,-1.04504,0.970667,-0.613528,1.07207,-0.668158,-0.190589,0.305949,0.300644,-0.139564,-0.626977,-0.253089,-1.35443,-0.383341,-0.618564,-0.710469,-0.35171,-0.0714553,-1.47262],[-0.249124,-1.56986,-1.68611,1.44758,0.0383676,1.66188,-0.296435,0.334985,0.110431,0.365423,-1.18053,-1.15611,-1.05362,-0.730402,-0.42794,0.885542,0.299086,-0.311263,0.565561,0.000232273,0.396333,-1.13804,0.952744,-0.459867,0.690327,-0.989819,-1.91632,-0.641024,-1.38255,0.516502,-0.7707,-0.4744,-0.774559,0.354002,0.600844,0.371896,-1.30508,0.659244,0.716476,-0.691782,0.938117,-1.05933,0.334432,-0.0147672,-0.209002,0.819772,0.861754,-1.21754,-0.999461,1.1525],[-0.105982,-0.934407,0.783391,-2.20784,1.33458,0.554974,-1.28916,1.21859,-0.238053,1.29003,0.010353,0.519082,-0.159671,-0.783689,0.899027,-0.216969,-0.768926,0.284636,-0.952564,-0.31992,-2.71309,-0.969338,-0.521105,-0.00224917,0.47261,-1.69617,-0.0422701,0.325231,-1.23077,-0.273063,-0.455322,1.27331,-0.822067,0.45815,0.406992,1.06253,-0.273202,0.882026,0.789344,0.70877,0.503785,-1.1153,-0.246089,0.0799075,1.28399,0.838126,-0.806233,0.0890047,-1.16483,-1.52289],[0.280647,-0.633012,1.45978,0.894887,-0.872995,-1.77584,-1.49633,-0.357655,-0.777297,-2.09643,0.195525,-1.58083,0.545966,1.24423,0.615549,-1.21155,-0.0453867,-1.04267,-0.431654,-1.36953,-0.934711,2.9109,-1.16422,0.463232,-0.741591,1.34029,-1.5447,-0.770506,-0.891838,-1.47224,-0.33924,-0.0254166,1.29192,0.361094,0.383082,0.275276,0.245837,-0.389083,-1.30652,0.782008,1.37246,-1.01152,-1.05454,0.156907,-0.2359,0.911564,1.81288,-0.952126,0.719968,-0.076478],[-1.3667,-2.75553,0.738031,0.572656,0.115323,-0.227883,-0.478844,0.313154,-0.394607,0.948252,0.333964,-0.20031,0.64031,-0.0595581,1.23814,-0.731528,0.786506,1.1547,-0.275063,0.57696,-0.499503,0.961325,1.15159,-0.609135,-0.105727,0.388586,-0.439691,0.107682,-1.43893,0.437025,0.192898,0.0447414,-1.8963,0.0923473,-0.202479,-0.801362,0.830145,-1.76635,-0.108065,-1.49497,1.72925,-0.985309,0.558251,1.68472,-0.862591,-0.975395,0.445366,1.20447,1.25283,-0.594803],[0.200813,-1.08604,0.0685194,1.04101,-1.10891,-1.4692,0.418288,1.08211,-2.28295,-0.799891,-0.355014,0.160055,-0.497197,0.231117,1.34318,-1.02693,-0.918008,-0.316017,-0.297025,0.49737,-0.377928,-0.181494,-1.32019,-1.87038,-2.1163,-0.392907,-0.136441,1.23351,-0.244829,0.246622,1.00423,-0.0181217,-0.407442,-0.353898,-0.572102,0.343565,0.112297,0.0880062,0.95304,0.366409,1.10585,0.494668,-0.408821,0.262222,2.88843,-0.0615542,0.334536,1.24753,-1.66953,0.589751],[-0.677215,-0.357972,0.557102,-0.746732,-0.590363,-0.223752,-0.844937,-1.27924,-0.329788,0.332246,-1.01838,-0.340941,0.901637,-0.261675,-0.411008,-0.589909,-0.98214,1.32683,0.0611727,-1.16985,0.310889,-0.449132,-0.387162,-0.378115,-2.13595,-0.203045,-0.404923,0.671752,-0.40931,-1.35781,-0.500727,-0.839213,-1.30103,-0.363277,-0.150564,-1.00377,-0.902192,-0.666045,-0.23363,0.87874,-0.907576,-0.625373,0.0954663,-1.17721,-1.19666,0.151742,-1.16693,1.35534,-0.337845,0.797311],[0.0471752,-1.86453,1.85343,0.780275,-0.032432,-0.841921,0.59851,0.344562,-0.0237361,0.307346,-0.105022,-0.0639217,1.20635,0.414397,-1.53866,-1.04168,1.29972,1.27338,-0.886828,-0.209989,0.940316,1.22005,-0.0132884,0.30847,0.426542,1.09085,-1.69729,-1.26532,-1.60852,0.438969,0.734895,0.269491,-2.13691,-0.225573,0.771607,0.714947,0.384211,-0.80608,0.884246,-0.280794,-0.541435,-1.08056,-0.552375,0.578742,0.657529,-0.760852,-1.67389,-0.14977,-0.755773,-0.627178],[-0.393831,0.377918,-0.917315,0.165918,0.169174,-1.47066,0.568566,0.385771,-1.81139,0.358887,0.547701,0.142391,1.26171,-1.80606,-0.467819,-0.596134,0.0340192,0.818007,-1.36159,1.25947,0.267257,-0.154825,-1.12775,0.502961,1.69107,-0.278125,-1.11442,1.72993,-1.20071,0.358237,1.14273,0.932841,-0.700015,-1.40885,-0.00437817,0.64902,0.251974,0.0318065,-0.501959,1.60282,-0.244991,0.361962,0.68928,0.585427,0.155902,-0.328501,0.779739,0.807075,1.70716,-0.436377],[0.378488,0.882036,-1.25913,0.914279,-0.792983,-0.660495,0.610285,1.05581,0.960754,-0.577628,-0.905147,0.934891,-0.429434,-1.43746,1.14512,-0.626028,-0.228758,-0.0791022,-1.80093,-1.27153,0.716371,1.8069,-0.13921,-0.797275,0.255915,-0.706199,0.230715,0.506178,-1.36992,-0.41754,-0.484099,-1.72651,-1.09382,-0.374617,0.495664,1.59003,0.447893,-0.521163,0.980694,-0.523546,0.403993,-1.98345,-0.576375,0.439205,1.31545,0.241711,1.27857,-1.1466,-0.489727,-1.1648],[0.595874,-0.38844,-1.38911,0.714408,0.500504,-0.482406,0.114841,-1.53053,0.683798,0.827448,0.800684,-0.107883,0.907315,-0.25779,-0.722312,-0.53151,-0.496994,-0.0916471,0.475509,0.880032,-0.126835,-1.08264,1.14396,-0.496292,-1.00986,0.806482,0.35316,1.91162,-1.103,0.557756,-2.00635,-1.62899,-0.793176,-0.401074,0.276345,0.34492,-1.39698,-0.697134,0.232368,-1.00876,-0.660695,0.48796,1.21299,1.66375,-0.259926,0.91757,-0.609973,1.41063,-1.30055,2.80062],[0.255776,-0.523881,0.182318,-0.708884,0.122349,0.799615,-1.27647,-1.00901,-0.377514,-0.48439,-0.0715432,0.438673,0.208261,-0.547168,-0.0268258,-1.36974,-0.34417,0.640735,-0.896908,0.497006,-0.443953,0.795587,1.13486,-1.5732,0.823725,-0.165333,-1.0452,1.73914,-0.807706,0.369411,0.0176158,0.205571,-0.281364,-1.79395,-0.142244,0.544969,-0.723818,-0.153478,-0.435058,-0.0815872,0.0588983,-1.01206,1.31318,0.433943,0.0839885,0.023011,0.832423,1.64336,-0.313212,-0.46086],[-1.06067,0.0445855,0.0231905,0.819832,1.008,1.58174,-1.42978,1.34531,-0.511446,1.14173,0.624193,1.28142,0.398866,1.05779,-0.198243,0.008527,-0.162599,1.61601,-0.461165,-0.420898,-0.546158,-0.465645,0.599795,0.264542,-0.0193299,-0.518856,0.55575,1.01716,-0.277648,-1.42342,-0.698119,-1.02287,-0.955145,0.87638,0.574297,0.00275626,-0.103828,1.88973,-1.61091,-1.87545,0.280237,0.0655056,0.624738,0.0875317,-1.21501,1.30437,1.44158,0.817449,-0.943498,-0.556942],[-0.125813,0.935385,2.33053,0.76992,0.195542,-1.71185,-1.12514,1.5179,-0.443342,0.345352,-0.422949,0.34662,-2.57078,-0.162565,1.35964,-1.04118,1.17277,1.18752,-1.30448,-0.747468,1.24518,1.20296,0.261893,-0.574998,2.11766,-0.296008,0.103493,-0.0541967,2.61063,-0.393189,-0.571744,0.961325,1.13984,1.8631,0.133986,-0.414293,-1.22299,-2.01374,-1.07997,-0.521606,0.0402012,-0.0318521,-2.58311,-1.04855,0.0833437,0.226275,0.740959,0.155467,-0.358449,1.59577],[0.523763,0.670579,-0.973433,-0.716598,-0.611809,1.22452,2.04466,-0.903612,1.288,-0.350048,-0.858538,0.136854,-1.05143,0.884963,-1.62752,3.29972,-1.15802,-0.414965,0.151494,-0.782881,0.174007,1.60561,-0.09035,-2.12947,-1.03668,-1.79005,0.0867409,-0.811595,-0.529458,-1.42551,0.983269,-0.164923,-1.04125,2.07731,0.665216,1.52921,-0.358107,0.342048,0.310392,-0.743593,0.315583,0.574224,0.327238,-1.29248,-1.42141,-0.171692,0.193302,-0.857523,1.15978,0.602808],[-0.33074,0.106375,0.293405,-0.00579881,0.0826598,-0.0419683,-1.69623,-0.782397,-0.577807,-1.19391,-1.06032,-0.365269,-0.728193,-1.21736,0.358594,1.40028,-0.740516,0.41015,-0.331539,-1.36073,-0.863501,-0.557016,0.0325228,-0.145935,-0.594889,-0.192162,-1.87734,1.46935,-0.555068,-1.44968,-0.734124,0.641087,0.589669,0.512629,-0.567246,-0.673525,0.754438,1.1494,2.29604,0.0110337,1.11165,-0.146146,-0.195887,1.19351,0.346196,0.0836575,-0.0165146,1.51123,2.37098,-1.0318],[0.0463143,1.24188,0.828021,0.383346,1.35776,-1.84356,-0.207989,-0.232983,-0.411194,-0.412243,1.91773,-0.319842,-0.876851,0.883738,0.702083,-0.553645,1.69374,0.0380858,0.293826,0.2598,-0.657695,-0.486077,-1.12265,1.42708,-0.928768,-1.73712,-1.90846,-0.598037,0.0562009,-0.439813,-0.79302,-0.962598,-0.25674,-0.934172,-0.0581202,0.134304,1.59029,0.447965,0.411018,-1.27575,2.05133,-0.522696,-0.355818,-0.163198,0.631122,0.760189,1.62709,-1.50125,-0.508318,-0.031281],[0.420413,-1.47911,0.394535,-1.34772,-2.05737,0.90214,-1.85277,-0.590751,0.430517,1.26709,-0.903658,0.858486,0.661996,0.0169828,-0.878863,-0.0302045,-1.79111,-0.557253,-1.81434,1.53686,0.346646,1.85416,-0.910232,-0.884759,1.30705,0.705971,-0.283462,2.04695,-0.7747,-0.0128618,1.00766,0.226981,-1.00768,-0.246958,-1.52467,-0.42451,1.96506,0.524173,0.246414,0.637238,-1.48425,0.258445,-1.76125,0.486776,-1.13629,1.78263,0.104933,0.658439,-0.536962,-0.933352],[1.27494,-1.21178,-1.04673,1.14778,-0.528506,-0.306711,-1.40162,-0.14813,0.209387,-1.61054,1.62164,-0.190696,-0.556892,1.00243,0.61631,-0.264226,0.539357,-0.759282,-0.740348,0.851667,-0.05575,1.06468,-1.22368,-0.950531,-0.978216,-0.649032,-0.255987,1.58077,-0.231754,-0.501942,-1.53244,-1.79261,0.39587,-0.384643,-0.829123,-0.822044,-0.399343,-0.287488,0.665557,0.157328,0.256762,-0.911057,1.11097,-1.27008,0.503896,0.0975884,-0.632705,-1.57857,-1.46531,-0.389947],[0.940637,-0.577582,0.212292,2.19177,-0.56437,0.689818,-0.280162,-0.313596,0.882328,-0.86143,1.38494,1.37702,-1.16448,0.429194,-0.0587634,-0.575384,1.42977,0.678645,0.0429031,-0.547802,-1.06108,0.207336,1.24207,0.796538,1.21016,1.90807,1.48415,0.88977,0.428659,-1.06582,0.27796,0.60359,0.727291,0.58484,0.641571,0.058135,1.09239,0.765658,0.790959,-1.36532,0.514913,0.355328,-0.045566,0.759079,-0.0847037,-1.0199,-0.921909,-0.214868,-1.61895,-0.640994],[0.330089,-1.43419,-2.22742,-0.623931,-1.40236,-0.428292,-1.61937,-0.364186,-0.240287,0.279292,-1.98756,0.362283,0.927919,-0.12034,-0.926309,1.59994,-1.38653,-0.757607,-0.239945,-1.23235,-0.286775,0.599945,-1.94894,-0.500697,-0.09982,0.317669,-0.0458936,-0.154651,-0.501761,-1.39121,-1.5249,-1.46864,-1.39468,-0.185981,0.143462,1.35305,-0.149277,0.702392,-0.193391,-1.24604,0.611237,0.852019,1.4072,0.912313,-0.611383,-0.0121589,0.467487,-1.4153,0.740731,-0.763481],[0.724044,0.239828,0.533525,0.417176,0.552995,-1.13295,-1.6192,0.946759,-0.402964,-1.73949,0.147386,0.516913,0.264654,0.170627,1.44763,1.11858,-1.99197,-0.125255,1.40859,-0.967098,-0.143533,-0.351131,0.565417,0.961957,-0.0941514,-1.58986,-0.563599,1.28929,1.41246,1.74846,-2.12981,0.861243,-0.301759,-0.367491,-0.746301,0.286349,-0.216383,1.2285,0.451883,1.41523,1.081,-0.299874,0.171426,0.411421,-0.32937,0.215936,0.150328,1.49864,0.459313,-1.30079],[-1.88339,-1.68905,-0.0732215,-1.36046,0.158985,-1.0865,-0.392937,-1.74382,-0.828638,0.333673,-1.34987,0.843667,0.158331,0.468022,0.0756031,-0.329833,0.664583,0.0477367,-0.342438,-0.78337,0.357438,0.932135,-1.07401,0.203813,-1.9412,0.106955,0.55384,0.696359,0.476122,-1.09712,-1.12643,0.398072,-0.318662,1.85462,-1.16752,1.34392,0.141954,1.57698,-0.533769,0.213665,-0.7749,-0.761301,0.523634,0.37067,-0.361466,1.26238,-2.14272,-0.504515,-2.94613,-2.36045],[1.69306,-1.24953,-0.0498584,-1.35819,-0.622964,-0.798366,0.597956,0.221884,0.459528,-0.0406482,-0.68511,-1.784,-1.01151,0.00416908,0.104444,0.771583,-2.43749,-0.665588,-0.304153,-2.55449,0.389961,2.3281,0.963178,-1.75924,-1.87186,-0.389706,-0.899938,1.45013,-0.171157,-1.36311,-0.487536,-0.401945,-0.231341,-1.13749,1.71497,-1.96523,0.755426,1.71934,-0.218199,0.187219,-0.871069,0.217338,-1.55717,1.32217,0.398579,-0.477082,-0.601468,-0.435811,-0.0960403,-0.256647],[0.0255689,1.56128,-1.17248,-0.11079,0.590968,2.18261,-1.22408,0.217859,-0.763556,-1.32398,-0.945366,-0.317111,-0.637685,-0.365553,1.58223,-0.550647,0.498581,0.238471,-0.217006,-0.41461,0.45463,0.252855,0.205678,-1.98871,-0.854815,1.22307,0.924643,-1.49421,0.4076,1.21842,0.479897,-1.85945,-0.764697,-1.02573,-0.0947234,-0.601465,-1.49545,-0.306369,0.0470306,0.755223,-0.328731,-0.139272,-0.487369,0.0690282,-0.268608,0.0068535,-0.875993,0.137191,-1.07551,-0.634091],[-0.336773,1.20844,0.671958,-0.561142,-1.49638,0.665002,0.805963,-1.54072,0.137989,-0.0615421,-0.34953,0.0929275,1.35662,-0.728789,0.954167,0.510817,0.189241,0.410116,0.289486,-0.164731,-0.666211,-0.646401,-0.651912,-0.681326,-0.766004,0.483524,-0.413629,-0.868758,0.562641,-0.834728,0.820321,-0.779053,1.17489,0.135723,0.16733,0.66037,1.33117,0.575722,0.0727847,0.230544,-0.700026,0.476892,0.948535,-0.273459,-0.159775,0.777311,-1.62657,-1.13791,0.55296,-0.177135],[0.494753,-0.721043,-0.295464,1.23792,0.602372,-0.361366,-0.0131789,-0.665559,-1.79629,-1.41958,-1.11904,-0.0572135,0.775549,-0.266873,-1.09865,-0.498175,-2.08416,-1.54098,-0.330137,0.155698,1.78385,-0.310675,1.46696,0.539331,-0.540046,-1.14192,0.556626,-0.379025,0.595643,1.09278,0.474647,-0.171554,0.748044,1.20862,0.748133,1.993,-1.75178,1.10842,-0.177063,1.13158,0.653914,-0.959446,0.183114,0.0786716,2.54943,0.848791,-0.478108,-1.03925,1.4419,-0.737529],[1.15805,0.890429,1.57808,0.108537,-0.0348616,-0.348586,-0.334948,-1.27809,0.135477,1.88835,0.0974429,0.862718,-0.492694,-0.659196,0.159212,1.11136,-0.648619,0.4775,-0.464956,0.0834198,-0.223611,-1.93534,-0.337542,-2.25778,-0.403265,-0.976755,-0.281057,0.938258,-0.682631,-0.113563,-0.5023,0.642994,0.571738,0.237635,-0.585318,2.24005,-0.355195,0.341898,-0.809153,-0.0531548,0.565114,-0.879505,-0.249625,-1.57214,0.844006,-0.572281,-0.0786966,1.23206,0.425501,-0.98836],[-1.63005,1.75522,-1.25216,-0.955577,0.16643,-0.283763,-1.49447,1.45816,-0.181589,-0.399262,0.436735,0.296382,0.216189,-0.81075,-0.0962929,-0.126036,-0.690547,-0.60856,0.41892,1.69571,-0.232207,0.90231,0.21649,0.507041,-0.410658,-0.654544,0.511105,0.133506,0.492369,0.668824,0.260934,0.0298325,-0.380048,0.932664,-1.66744,1.96588,1.49039,0.6728,0.899287,0.917509,0.913594,-0.354155,-0.594075,2.03208,1.40807,-1.16528,-0.839153,0.227195,-0.729144,1.60178],[-1.32359,2.33309,-0.0594198,1.09106,0.468298,-0.445476,-1.13603,1.84279,1.49871,1.11405,-0.500879,1.60515,0.373635,0.277251,0.922887,-0.161594,0.625034,-1.50288,-0.868244,-0.219231,-2.22904,0.280684,-1.81529,0.819733,0.370919,-0.971627,-0.415617,-1.236,-0.475451,1.14017,-0.214736,-0.670431,-2.20741,0.651921,1.82266,0.60881,0.657373,0.926424,-0.56371,0.0710681,1.67576,1.57166,-1.23847,-0.384962,2.14351,0.863348,-0.995056,0.258976,-1.23673,-1.08009],[1.25585,-0.349846,-0.280585,1.6676,0.0736535,0.471068,0.0076526,0.274658,-1.66546,1.47124,-1.12958,-0.204086,0.901177,-2.28083,-0.0593102,2.55616,-0.664025,-0.960953,-0.736436,2.17426,0.196359,2.36297,-1.77094,-0.641137,0.296148,-0.975727,-1.07574,-0.283609,1.14839,1.60898,-0.659397,1.13298,-1.39292,0.56888,1.61463,0.850518,-0.696901,0.386632,1.19023,0.242503,-1.50621,1.1608,-0.235233,-0.729231,2.21282,0.622843,1.69702,-0.363904,0.265715,0.154326],[0.82169,0.910938,-1.31951,1.46499,-1.33012,0.811521,-1.13315,1.33679,-0.495137,0.886715,1.35069,-0.259471,1.11067,0.567498,0.152817,-0.716987,1.26717,-0.00882458,-0.125492,0.994411,0.834386,-1.19328,-0.595999,-0.934758,1.70292,-1.88311,-0.632027,-1.06799,-0.0734555,-0.987791,-1.39731,-0.665459,-3.2152,0.851559,0.238903,0.285833,-1.40482,-0.652705,0.43339,0.249883,-1.14048,0.354564,-0.352768,-0.0784851,0.944504,0.894582,-0.884544,0.628401,0.968882,-0.860966],[0.561531,-0.0296621,-0.657712,0.826525,-0.457622,-0.149386,2.0485,-0.673538,-0.16203,0.345234,-0.749846,-1.26757,-0.858991,-0.103716,-0.606256,-0.80741,0.599055,0.445516,0.114242,-1.85313,-0.423036,-1.37662,-0.480917,0.723688,0.649633,0.552687,-0.281901,0.782793,-0.0960251,-1.2387,0.113936,-1.36261,2.37049,0.525121,0.0874197,1.54716,1.56951,1.2704,-0.186562,-0.102774,-0.345365,-0.654378,-1.02927,0.6905,0.736799,-0.993312,0.266287,-0.263846,-1.49283,0.254803],[0.960658,-0.853501,1.25914,-2.42949,0.790758,-0.888634,1.47263,0.770908,1.91545,0.954183,1.93562,0.252326,0.58173,-1.05238,-0.522813,0.197461,0.897451,0.660504,0.584357,-0.499637,0.452193,0.496579,1.50442,-0.623731,0.618786,0.0737859,-0.565647,-0.0562004,1.02627,-0.479677,-0.28614,1.22036,-0.0116316,1.51551,1.02385,-0.0417751,0.53769,-0.402135,-0.839957,-1.55697,0.220752,-0.989192,0.0871897,1.12507,1.20759,-0.807131,0.621189,-0.326778,0.764774,-0.257343],[2.06911,0.86583,0.590637,0.420849,-1.72101,0.129019,-1.62986,-0.757611,-1.30109,-0.231228,-1.12307,-1.49329,-0.749206,0.707494,1.59874,-1.21714,0.47845,-1.03821,0.492566,0.657364,1.57526,1.21984,-0.709561,-0.776221,-1.23781,-0.550685,0.628146,-1.10702,0.589288,-0.978872,-0.145623,-0.0256911,-0.699299,-0.330221,-0.197485,0.491198,-1.63861,0.686878,0.570265,-0.156085,-0.0305263,-0.431764,-1.27157,-0.793863,1.14444,-0.560641,1.32575,-0.349489,1.53075,-0.469655],[0.633948,0.000484705,0.162017,-0.303025,1.95826,-1.184,2.85721,-1.22165,1.60958,0.0676781,0.0889198,0.585123,-0.603505,-1.43505,-0.842373,-0.820422,-1.90428,-0.690854,0.00820942,0.0929112,0.72624,-0.626592,-2.16335,0.142604,1.38294,-0.275373,-1.20324,-0.514129,-0.514748,0.132651,0.801098,0.0880318,-1.82493,-1.1084,0.278316,-0.69167,1.45115,1.19132,-1.04521,-0.0456138,-0.432105,-1.3054,-1.4054,0.0252234,-1.65311,-0.106716,-0.458153,-0.858413,1.93291,-2.35574],[-0.42586,1.76332,1.37717,0.718315,0.3177,0.409702,0.135519,-0.178879,0.174213,0.625681,-0.715375,1.86923,0.920428,0.113265,-1.763,-0.464807,0.0916546,-0.230523,-1.37432,1.02499,-0.0567586,-1.06441,0.138757,-0.19431,-1.12571,-1.86533,0.888705,1.56517,0.91705,-1.27205,0.0677647,-1.10474,0.506271,-0.061787,-0.485281,1.33905,0.929844,-1.21992,-1.06835,0.294775,0.547955,0.135934,0.173605,-1.2684,-0.367743,-0.374291,0.734516,-1.58713,0.76861,-0.923643],[1.07417,-0.0094386,0.0759035,1.80936,0.402283,1.79658,-0.733222,-1.51196,0.0589275,0.94315,0.135986,1.42476,1.58787,-0.281607,0.779138,0.777951,0.321761,-0.867385,-1.28078,0.303938,0.0480894,-1.62613,-0.311028,-0.466569,1.19328,0.366058,-1.12296,1.54873,-0.369989,1.15755,0.615606,-0.660714,-1.9786,0.577467,0.781059,0.350362,1.34878,-0.461905,0.297388,0.954033,1.36904,1.76136,0.739209,1.04843,-0.77164,-0.875533,0.65143,1.3225,-0.126768,0.152679],[0.205984,1.05701,0.525309,1.63757,0.632252,1.40895,1.29727,-0.979615,0.7319,0.993081,-1.42515,0.953715,-0.624247,0.369449,-0.421796,-2.21683,0.00594511,-0.454787,0.845383,1.05,1.13272,0.469982,-1.26433,-0.010015,-0.160989,0.540831,-0.0711944,0.0342304,1.27664,-0.901461,-0.0755483,-0.689557,0.168249,1.93128,1.54305,0.140339,0.306774,0.770766,-0.575231,0.541513,0.0552063,-0.205571,-0.468917,0.72673,-1.15292,-1.8746,0.642506,-0.396466,-1.31385,-0.667898],[0.860653,0.27604,0.646565,0.927976,-0.892788,-0.45735,1.37281,0.873773,0.6245,-1.60259,-0.420765,0.067629,1.47369,-1.47175,0.551561,-1.13484,0.040303,-1.17594,1.64452,1.55678,0.524766,-1.1395,-0.216037,-0.110263,0.451044,-0.585666,-0.0342113,-1.4571,-1.83785,-0.0437795,0.754077,0.647632,0.324186,1.15176,-0.207494,-0.718437,-1.57997,-0.637684,-0.719761,-0.0345517,0.252966,1.14454,0.500789,2.16669,0.449752,-1.25001,-0.706656,0.796353,0.954791,0.626087],[0.583926,1.71184,-2.4665,-2.08527,0.856722,0.21654,-0.727665,1.95398,0.668736,1.55741,0.0769642,-0.22114,0.149843,0.425502,0.171778,-1.3799,0.509444,-0.532914,-0.39321,0.384251,-0.498323,-0.239781,-1.24822,0.211776,-1.02985,-0.667158,0.787919,1.91192,-0.668903,-0.335817,0.218537,1.48396,-0.941736,0.166244,-1.60935,-1.35524,0.208889,-0.287293,0.933317,1.28501,-0.103683,-0.890876,-0.673829,0.00964308,0.816249,-1.38598,-1.65461,0.600822,-0.271261,-0.573637],[-0.364193,1.54366,-0.0217618,0.193669,-1.91052,-1.46032,-1.06777,0.501193,0.41882,-1.08297,0.59592,-0.607285,1.77176,1.29391,-0.00580854,-1.07289,1.05714,-1.10673,-0.256391,0.295867,0.397539,-0.609521,0.579411,0.103063,0.814846,0.563589,-0.3126,0.215215,-0.197655,-2.89989,1.35012,-0.919268,-0.652387,-1.21609,-1.37023,0.234525,-1.85336,0.0622897,-0.669962,0.600227,0.30281,-1.2488,0.12387,-1.04279,-0.446502,-2.88041,-1.68538,-0.287048,0.378984,0.876335],[0.56546,0.93192,-0.437738,-0.908032,-0.227218,0.572809,-0.456514,-1.57853,-1.31717,-1.13571,-0.611001,-0.146043,0.411287,0.28172,0.810746,0.173621,1.46284,0.498709,1.78015,-0.304921,-0.828005,0.807535,1.33763,-0.6612,-0.452451,-0.78932,-0.454109,1.04147,1.14819,-0.134896,-1.71459,0.171903,0.230128,-1.44701,-1.67827,2.46252,1.16816,0.367371,2.39329,-0.47817,-0.202923,-1.19228,-0.575042,0.11196,1.74705,-0.696291,-0.266604,-1.79067,-0.77816,-0.301755],[0.297849,0.400254,1.20268,-1.52103,-0.361355,0.687186,0.170605,1.19778,0.598567,0.118506,-0.958528,-0.42673,-0.123163,-2.02283,0.259124,-0.694069,-0.139701,-0.993678,-1.28044,-2.5476,0.466024,-1.99645,-0.15223,1.05882,-0.0021634,2.51509,-0.542791,-0.875567,-0.454758,0.520771,-1.07741,-1.07607,-1.05308,-0.82996,1.44741,-1.95904,-0.213379,1.62556,-0.257763,-0.0198729,-0.224562,1.18923,-1.38481,-0.185535,1.0261,1.1966,-0.209197,0.452413,-0.34183,-0.400653],[1.79453,0.700779,-2.67396,1.12502,1.08198,-1.57858,-1.15408,1.18073,0.264124,-0.536483,0.549783,-0.949303,0.599065,-1.1178,-0.201409,-1.90475,-1.89002,2.09601,-2.1285,1.09135,-0.648797,-1.84308,0.764169,-1.7791,-1.22297,1.74127,-0.166648,0.0841847,-0.386619,-1.20427,-1.16376,1.19887,-0.571279,-0.735164,-1.73667,-0.549576,-1.17966,-2.23536,-0.247959,-0.717002,0.316377,-1.42412,-1.43949,0.0665777,0.219673,1.69893,0.171728,0.340645,-0.41827,0.100678],[1.12194,2.09367,0.520486,0.646361,0.192429,0.790208,0.179969,-0.55682,-2.14926,0.203478,0.10883,0.498969,0.432893,-1.2423,-0.767635,-0.00977988,0.991108,0.862828,-0.325578,-0.049106,1.32707,-2.12666,0.189121,-0.713389,0.125571,-0.496842,-0.00432595,1.19305,0.473094,0.809979,-0.0678996,-0.50521,-1.49045,0.619893,-0.0955172,-0.269101,1.61282,-1.00761,0.931254,0.207555,0.347284,-1.15052,-0.20742,-2.65895,-1.48875,0.923535,-1.94447,-0.768145,1.72501,-0.0436589],[1.08434,-0.668281,-0.261684,0.859582,-0.0147362,1.31967,0.448267,-0.62093,-0.795863,1.94269,-1.03515,-0.836572,-1.40718,-0.239596,-1.08549,-0.414547,0.372548,0.291995,1.42859,-0.610108,0.131892,-0.73196,-0.198604,0.609983,-0.716304,-2.29615,0.312573,0.86084,1.09053,-0.124602,-0.242764,-0.949785,0.688317,1.21085,0.39194,-1.16167,0.254053,-1.39144,-0.726984,-1.22325,0.238396,0.00850517,-0.983183,-0.0839708,0.0231792,-0.963507,0.603349,1.38752,-0.798139,-0.108977],[0.468148,0.649319,0.626251,0.528481,1.5784,1.19897,1.30205,-0.879646,0.937621,-1.81942,0.145389,1.51373,0.103144,0.00735,1.21811,-0.831088,-0.268432,1.61276,1.33462,-0.300307,-1.45203,-0.12959,-0.524069,-0.945578,0.387045,1.69911,-0.174005,1.1925,-0.472185,-0.307438,-1.11252,0.97219,-2.87952,0.820582,0.264742,-0.666069,0.893821,0.438809,2.95889,0.0674588,0.84589,-1.32386,-1.06034,-1.33636,-1.25827,-1.34706,-0.177882,0.540744,-0.343465,0.0958478],[0.670855,1.08251,-0.151287,0.833527,0.345312,0.220952,-0.231539,0.107908,-0.91501,-0.203099,-0.56714,-0.66128,0.0648874,1.46161,1.32339,-0.550571,0.694541,1.28247,-1.06274,-0.734624,1.12715,1.70895,-1.54228,-0.316973,-0.528847,-0.867034,-0.668101,0.29379,-1.67134,-1.51768,0.292024,-1.30891,-0.103212,-0.346791,1.90604,-0.0820004,0.530638,0.623304,-0.63853,0.298453,0.22311,-1.16767,-0.362709,-1.13273,0.0548938,-0.307365,-1.67533,0.487783,1.73917,0.02339],[-0.579121,-0.101642,1.25743,-0.908015,0.593429,-0.924235,-0.110395,-1.6046,0.183843,0.48343,-0.0023692,-0.625586,-1.30174,0.188594,-0.645451,1.5511,3.42642,0.899747,-0.185277,0.506372,-0.217657,0.899293,0.713577,-0.657509,0.549835,-0.136713,-1.00626,1.44015,0.692163,1.3443,-1.20581,0.372267,-1.81138,0.0266602,0.928264,1.54569,0.547367,-0.857423,0.316709,0.465601,-0.297747,-2.13946,0.0761303,1.56368,0.441609,0.664109,0.327329,0.939514,0.289437,-0.311237],[0.164585,2.0743,0.513933,0.276721,-0.961282,-0.585966,-1.21079,0.31633,-0.150264,0.0101077,0.161685,0.482552,0.357304,-0.0632014,0.526352,-2.00568,-0.0978565,0.658016,-0.477474,0.510452,-0.500084,0.495741,0.249038,-0.430408,0.890325,0.518914,1.30782,-0.583684,0.185365,0.842037,-0.204647,-0.402209,0.302994,-0.922143,0.415925,-0.741368,1.08923,1.40358,-0.181063,-0.21912,-0.642304,-3.41313,0.984381,0.806831,0.83067,-0.29621,-1.72636,0.964841,0.930223,-0.399834],[0.813263,0.809129,1.7687,-1.174,1.17325,0.0282574,0.374947,-0.5261,1.96448,-0.579651,0.136156,-0.519706,1.60421,1.58441,1.59861,1.95522,1.11751,-0.149472,0.914685,-0.259934,0.657333,0.153568,-1.2227,-0.444243,-0.0683242,0.154652,1.05987,1.05916,-0.686767,0.564097,-0.662053,0.579916,0.0124798,0.344389,1.34598,1.29433,0.830744,0.722467,1.23522,-1.04486,0.196938,1.0096,-0.293553,1.01159,0.408634,0.734769,-1.50163,1.68904,-0.742836,1.09577],[-1.22048,0.33942,0.644272,1.00134,-1.68592,-1.27436,0.459198,-0.865861,0.28012,-0.44522,0.355266,1.51438,1.26568,0.539377,-1.71281,0.942169,0.0881056,-2.39336,-0.0905619,-0.586331,1.10131,1.15303,1.6301,0.283209,0.163987,-0.770155,0.0904837,-0.172469,-0.616273,0.92839,0.252997,-1.3745,-0.771941,1.30939,0.101522,1.5465,0.410374,0.473705,-0.318335,0.27731,-0.869856,-1.05807,-0.464132,-0.917081,0.740681,0.410788,-1.13647,1.67706,-0.594811,-0.716828],[0.362399,1.40361,1.57358,-1.32953,0.911785,0.757945,0.187692,1.70207,-1.55523,1.46179,0.231013,-0.461569,-1.56448,0.238302,-1.17379,-1.68804,1.08133,-0.874111,-0.340057,-0.022648,1.08765,0.496009,-0.572067,-0.288912,-0.78115,-0.730976,0.0390502,-0.144559,0.689437,0.609804,-1.17314,0.704926,-0.127427,-1.89201,-0.443382,-0.7323,0.723299,0.149604,-1.66908,0.070773,-0.373304,-1.67085,-0.434799,0.343829,1.38205,1.4687,-1.64879,-1.19009,-0.01439,0.35003],[0.452895,-0.152873,0.118592,2.72461,-0.301278,-0.379878,-0.684899,-1.50761,-0.403923,0.649186,0.0762742,-0.851523,-0.123622,1.06815,-0.397848,0.843843,-0.181028,-0.0438939,-0.380033,-1.11757,0.959281,2.18591,0.450554,0.682765,-0.535602,-0.0796134,0.51526,0.334102,1.45528,1.5136,0.336645,1.57779,-1.01101,0.814843,0.535974,1.3495,-1.45222,-0.0141352,0.873978,0.364851,0.377372,0.834555,-0.700999,-0.275757,0.378561,-0.322813,-2.69387,1.66154,-1.00898,-1.7429],[1.50414,2.23324,-0.513046,0.992436,-1.3098,-0.579581,0.850885,-0.556146,0.580225,1.10695,-0.0328723,1.04003,-1.16712,-1.32349,-0.627965,0.208172,0.260799,-0.552469,-0.619689,0.245125,0.0948939,0.716642,-0.116317,-0.14791,0.313884,0.0899227,-1.36721,-2.11143,1.15201,-0.140317,1.23035,-0.346877,-0.950726,-0.616054,0.319975,0.613987,-0.68737,-0.350524,-0.327278,-0.362453,1.40221,1.77635,-1.15629,-0.127482,0.755285,0.0559211,0.794469,-0.612243,0.766336,0.288357],[-0.0508249,-0.0793704,-2.40414,1.53285,-0.620476,-0.242165,-0.904512,-0.293661,1.5173,-0.765363,-1.04687,-1.64621,1.45816,-0.860781,1.09394,-0.370841,-2.39454,-1.36186,-0.560644,-1.50858,0.483433,-0.261266,-0.861288,0.469506,0.386124,0.342229,0.146912,-0.956205,-0.702025,-1.77684,-0.685147,0.390314,-0.898232,-0.0895835,-1.41352,-0.160516,-0.638996,0.0843984,0.108351,-0.238006,-0.226036,0.578808,-1.02819,-0.776966,-0.112651,0.793378,0.359861,-0.999023,1.49354,-0.0844828],[-0.55563,-0.175979,0.832347,0.510283,-1.61388,-1.95576,0.108243,-1.27854,-0.0753838,1.18132,-0.507111,0.639031,-0.298541,0.148538,0.57249,-2.13923,0.162395,0.760917,0.744905,-0.979552,-0.0791105,1.77499,-0.620316,-0.90824,0.407372,-0.885701,-0.924377,0.234076,0.128296,0.638533,0.772607,-0.864277,0.107873,-0.917878,1.18343,0.666078,0.747828,-0.103422,1.41601,0.186558,0.70869,-2.03628,1.29742,-0.153834,-1.80139,0.630989,-0.413832,0.260981,1.46806,0.161819],[1.45217,1.59736,-0.640421,-0.446649,-0.985126,0.343068,-0.0109574,1.83361,0.305093,0.978674,-0.188115,-0.552073,0.976517,0.851092,0.579841,-1.11177,0.51926,0.146719,-0.0465462,0.40848,0.531473,-0.825802,1.56914,0.358758,-0.126305,-1.30359,0.809067,0.469835,0.38069,0.871994,0.626257,-1.53141,-0.27351,-0.152952,0.488006,-1.16409,0.804498,1.23905,-0.391258,0.234196,-0.752465,-0.851696,0.163312,-0.558843,1.11212,-0.347134,0.763032,2.08595,-1.32975,1.37958],[-1.09864,1.14351,-0.538634,0.622466,0.0850364,-1.18216,0.488926,0.46285,-0.764243,1.77296,-0.181467,0.0971053,-1.04014,-0.739201,0.452638,-1.64808,-0.884486,0.260308,-0.483151,-1.11956,0.783447,1.4796,0.197804,-1.71521,1.10343,-0.582274,0.609956,-1.41666,-0.326508,0.29198,-0.803749,0.284017,-0.318564,0.1956,0.700779,-0.905315,-1.19103,1.00264,-1.18173,-1.71793,2.30068,-1.84119,-1.682,1.31176,0.210559,-2.30309,-1.87638,0.374424,0.946243,0.531944],[2.92318,0.150996,0.506167,-0.683612,-0.425464,-0.355365,1.09804,1.36352,-1.98942,-0.518472,-0.123771,1.30802,0.200577,-0.462492,0.0435103,-0.771213,0.120446,0.915471,-0.111944,-0.0486161,1.58077,0.387583,-0.589603,-1.25344,-0.200127,0.963663,